{"learner":{"attributes":{"scikit_learn":"{\"_estimator_type\": \"classifier\"}"},"feature_names":[],"feature_types":[],"gradient_booster":{"model":{"gbtree_model_param":{"num_parallel_tree":"1","num_trees":"1500"},"iteration_indptr":[0,15,30,45,60,75,90,105,120,135,150,165,180,195,210,225,240,255,270,285,300,315,330,345,360,375,390,405,420,435,450,465,480,495,510,525,540,555,570,585,600,615,630,645,660,675,690,705,720,735,750,765,780,795,810,825,840,855,870,885,900,915,930,945,960,975,990,1005,1020,1035,1050,1065,1080,1095,1110,1125,1140,1155,1170,1185,1200,1215,1230,1245,1260,1275,1290,1305,1320,1335,1350,1365,1380,1395,1410,1425,1440,1455,1470,1485,1500],"tree_info":[0,1,2,3,4,5,6,7,8,9,10,11,12,13,14,0,1,2,3,4,5,6,7,8,9,10,11,12,13,14,0,1,2,3,4,5,6,7,8,9,10,11,12,13,14,0,1,2,3,4,5,6,7,8,9,10,11,12,13,14,0,1,2,3,4,5,6,7,8,9,10,11,12,13,14,0,1,2,3,4,5,6,7,8,9,10,11,12,13,14,0,1,2,3,4,5,6,7,8,9,10,11,12,13,14,0,1,2,3,4,5,6,7,8,9,10,11,12,13,14,0,1,2,3,4,5,6,7,8,9,10,11,12,13,14,0,1,2,3,4,5,6,7,8,9,10,11,12,13,14,0,1,2,3,4,5,6,7,8,9,10,11,12,13,14,0,1,2,3,4,5,6,7,8,9,10,11,12,13,14,0,1,2,3,4,5,6,7,8,9,10,11,12,13,14,0,1,2,3,4,5,6,7,8,9,10,11,12,13,14,0,1,2,3,4,5,6,7,8,9,10,11,12,13,14,0,1,2,3,4,5,6,7,8,9,10,11,12,13,14,0,1,2,3,4,5,6,7,8,9,10,11,12,13,14,0,1,2,3,4,5,6,7,8,9,10,11,12,13,14,0,1,2,3,4,5,6,7,8,9,10,11,12,13,14,0,1,2,3,4,5,6,7,8,9,10,11,12,13,14,0,1,2,3,4,5,6,7,8,9,10,11,12,13,14,0,1,2,3,4,5,6,7,8,9,10,11,12,13,14,0,1,2,3,4,5,6,7,8,9,10,11,12,13,14,0,1,2,3,4,5,6,7,8,9,10,11,12,13,14,0,1,2,3,4,5,6,7,8,9,10,11,12,13,14,0,1,2,3,4,5,6,7,8,9,10,11,12,13,14,0,1,2,3,4,5,6,7,8,9,10,11,12,13,14,0,1,2,3,4,5,6,7,8,9,10,11,12,13,14,0,1,2,3,4,5,6,7,8,9,10,11,12,13,14,0,1,2,3,4,5,6,7,8,9,10,11,12,13,14,0,1,2,3,4,5,6,7,8,9,10,11,12,13,14,0,1,2,3,4,5,6,7,8,9,10,11,12,13,14,0,1,2,3,4,5,6,7,8,9,10,11,12,13,14,0,1,2,3,4,5,6,7,8,9,10,11,12,13,14,0,1,2,3,4,5,6,7,8,9,10,11,12,13,14,0,1,2,3,4,5,6,7,8,9,10,11,12,13,14,0,1,2,3,4,5,6,7,8,9,10,11,12,13,14,0,1,2,3,4,5,6,7,8,9,10,11,12,13,14,0,1,2,3,4,5,6,7,8,9,10,11,12,13,14,0,1,2,3,4,5,6,7,8,9,10,11,12,13,14,0,1,2,3,4,5,6,7,8,9,10,11,12,13,14,0,1,2,3,4,5,6,7,8,9,10,11,12,13,14,0,1,2,3,4,5,6,7,8,9,10,11,12,13,14,0,1,2,3,4,5,6,7,8,9,10,11,12,13,14,0,1,2,3,4,5,6,7,8,9,10,11,12,13,14,0,1,2,3,4,5,6,7,8,9,10,11,12,13,14,0,1,2,3,4,5,6,7,8,9,10,11,12,13,14,0,1,2,3,4,5,6,7,8,9,10,11,12,13,14,0,1,2,3,4,5,6,7,8,9,10,11,12,13,14,0,1,2,3,4,5,6,7,8,9,10,11,12,13,14,0,1,2,3,4,5,6,7,8,9,10,11,12,13,14,0,1,2,3,4,5,6,7,8,9,10,11,12,13,14,0,1,2,3,4,5,6,7,8,9,10,11,12,13,14,0,1,2,3,4,5,6,7,8,9,10,11,12,13,14,0,1,2,3,4,5,6,7,8,9,10,11,12,13,14,0,1,2,3,4,5,6,7,8,9,10,11,12,13,14,0,1,2,3,4,5,6,7,8,9,10,11,12,13,14,0,1,2,3,4,5,6,7,8,9,10,11,12,13,14,0,1,2,3,4,5,6,7,8,9,10,11,12,13,14,0,1,2,3,4,5,6,7,8,9,10,11,12,13,14,0,1,2,3,4,5,6,7,8,9,10,11,12,13,14,0,1,2,3,4,5,6,7,8,9,10,11,12,13,14,0,1,2,3,4,5,6,7,8,9,10,11,12,13,14,0,1,2,3,4,5,6,7,8,9,10,11,12,13,14,0,1,2,3,4,5,6,7,8,9,10,11,12,13,14,0,1,2,3,4,5,6,7,8,9,10,11,12,13,14,0,1,2,3,4,5,6,7,8,9,10,11,12,13,14,0,1,2,3,4,5,6,7,8,9,10,11,12,13,14,0,1,2,3,4,5,6,7,8,9,10,11,12,13,14,0,1,2,3,4,5,6,7,8,9,10,11,12,13,14,0,1,2,3,4,5,6,7,8,9,10,11,12,13,14,0,1,2,3,4,5,6,7,8,9,10,11,12,13,14,0,1,2,3,4,5,6,7,8,9,10,11,12,13,14,0,1,2,3,4,5,6,7,8,9,10,11,12,13,14,0,1,2,3,4,5,6,7,8,9,10,11,12,13,14,0,1,2,3,4,5,6,7,8,9,10,11,12,13,14,0,1,2,3,4,5,6,7,8,9,10,11,12,13,14,0,1,2,3,4,5,6,7,8,9,10,11,12,13,14,0,1,2,3,4,5,6,7,8,9,10,11,12,13,14,0,1,2,3,4,5,6,7,8,9,10,11,12,13,14,0,1,2,3,4,5,6,7,8,9,10,11,12,13,14,0,1,2,3,4,5,6,7,8,9,10,11,12,13,14,0,1,2,3,4,5,6,7,8,9,10,11,12,13,14,0,1,2,3,4,5,6,7,8,9,10,11,12,13,14,0,1,2,3,4,5,6,7,8,9,10,11,12,13,14,0,1,2,3,4,5,6,7,8,9,10,11,12,13,14,0,1,2,3,4,5,6,7,8,9,10,11,12,13,14,0,1,2,3,4,5,6,7,8,9,10,11,12,13,14,0,1,2,3,4,5,6,7,8,9,10,11,12,13,14,0,1,2,3,4,5,6,7,8,9,10,11,12,13,14,0,1,2,3,4,5,6,7,8,9,10,11,12,13,14,0,1,2,3,4,5,6,7,8,9,10,11,12,13,14,0,1,2,3,4,5,6,7,8,9,10,11,12,13,14,0,1,2,3,4,5,6,7,8,9,10,11,12,13,14,0,1,2,3,4,5,6,7,8,9,10,11,12,13,14,0,1,2,3,4,5,6,7,8,9,10,11,12,13,14,0,1,2,3,4,5,6,7,8,9,10,11,12,13,14,0,1,2,3,4,5,6,7,8,9,10,11,12,13,14,0,1,2,3,4,5,6,7,8,9,10,11,12,13,14,0,1,2,3,4,5,6,7,8,9,10,11,12,13,14],"trees":[{"base_weights":[3.974119E-1,5.9414935E-1,-2.905991E-1,4.8202187E-1,1.6251367E0,-3.3854818E-1,6.909524E-1,4.1127938E-1,2.0679376E0,1.6459081E0,-1.4372946E-1,-3.5901663E-1,1.2597035E0,3.8836282E-1,4.432325E0,5.0079346E-1,-3.198045E-1,1.756271E0,3.029998E0,1.5196378E0,2.0096333E0,-2.276399E-1,-5.241224E-1,9.401837E-1,1.1968796E0,3.0446708E-1,2.6086955E0,2.4691355E-1,1.7369465E0,4.5274687E-1,1.4619877E0,8.371963E-1,-5.078066E-1,1.5241065E0,3.0128555E0,3.2441015E0,1.0004696E0,1.5440948E0,-3.690304E-1,2.0691261E0,5.806451E-1,3.9904088E-2,-3.6196932E-1,-5.296644E-1,7.641509E-1,5.410279E-1,2.4601364E0,2.4978568E-1,8.4653467E-1,1.6041276E-1,1.0466893E0,-8.490566E-2,1.981132E-1,1.3016562E-1,8.772707E-1,4.6945146E-1,6.950672E-2,2.8251117E-1,-9.0480104E-2,-1.5598725E-1,4.4366196E-1,3.2601798E-1,6.158143E-1,1.0359712E0,1.8203449E-1,1.0018158E0,-1.2838806E-2,4.4315928E-1,-3.7455413E-2,4.8045138E-1,2.2714987E-1,-1.4085668E-1,5.6603767E-2,6.527794E-1,3.8650304E-1,6.108596E-2,5.053476E-1,5.6761257E-2,-1.5292753E-1,-1.13168806E-1,3.9797547E-1,-1.5917543E-1,5.6603767E-2,1.5621119E-2,4.8186526E-1,9.507042E-1,-8.490566E-2,6.0682908E-2,7.641509E-1],"categories":[],"categories_nodes":[],"categories_segments":[],"categories_sizes":[],"default_left":[0,0,0,0,0,0,0,0,0,0,0,0,0,0,0,0,0,0,0,0,0,0,0,0,0,0,0,0,0,0,0,0,0,0,0,0,0,0,0,0,0,0,0,0,0,0,0,0,0,0,0,0,0,0,0,0,0,0,0,0,0,0,0,0,0,0,0,0,0,0,0,0,0,0,0,0,0,0,0,0,0,0,0,0,0,0,0,0,0],"id":0,"left_children":[1,3,5,7,9,11,13,15,17,19,-1,21,23,25,27,29,31,33,35,37,39,41,43,45,-1,47,49,51,-1,53,55,57,59,61,63,65,67,69,71,73,75,77,79,81,-1,83,85,87,-1,-1,-1,-1,-1,-1,-1,-1,-1,-1,-1,-1,-1,-1,-1,-1,-1,-1,-1,-1,-1,-1,-1,-1,-1,-1,-1,-1,-1,-1,-1,-1,-1,-1,-1,-1,-1,-1,-1,-1,-1],"loss_changes":[1.5780475E3,1.0471816E3,1.2226289E2,9.1659656E2,3.9635498E1,8.1344086E1,1.3536343E2,5.1254395E2,9.930737E1,3.7377197E1,0E0,5.2855164E1,2.37154E1,2.0278156E1,4.9503525E1,3.214983E2,1.8633588E2,7.299249E1,3.3256714E1,3.0943848E1,1.7821045E1,4.895623E1,1.9756073E1,1.6565243E1,0E0,1.4455662E1,5.412737E0,8.968087E-1,0E0,3.0850476E2,4.160321E1,1.4547066E1,1.8532196E1,5.013507E1,4.0763916E1,2.380188E1,5.260647E0,2.8123535E1,6.049527E-1,1.5077698E1,3.9575112E0,3.75256E1,2.3863884E1,8.1433105E-1,0E0,1.2751989E1,1.2279057E1,1.1370169E1,0E0,0E0,0E0,0E0,0E0,0E0,0E0,0E0,0E0,0E0,0E0,0E0,0E0,0E0,0E0,0E0,0E0,0E0,0E0,0E0,0E0,0E0,0E0,0E0,0E0,0E0,0E0,0E0,0E0,0E0,0E0,0E0,0E0,0E0,0E0,0E0,0E0,0E0,0E0,0E0,0E0],"parents":[2147483647,0,0,1,1,2,2,3,3,4,4,5,5,6,6,7,7,8,8,9,9,11,11,12,12,13,13,14,14,15,15,16,16,17,17,18,18,19,19,20,20,21,21,22,22,23,23,25,25,26,26,27,27,29,29,30,30,31,31,32,32,33,33,34,34,35,35,36,36,37,37,38,38,39,39,40,40,41,41,42,42,43,43,45,45,46,46,47,47],"right_children":[2,4,6,8,10,12,14,16,18,20,-1,22,24,26,28,30,32,34,36,38,40,42,44,46,-1,48,50,52,-1,54,56,58,60,62,64,66,68,70,72,74,76,78,80,82,-1,84,86,88,-1,-1,-1,-1,-1,-1,-1,-1,-1,-1,-1,-1,-1,-1,-1,-1,-1,-1,-1,-1,-1,-1,-1,-1,-1,-1,-1,-1,-1,-1,-1,-1,-1,-1,-1,-1,-1,-1,-1,-1,-1],"split_conditions":[1.2448147E-1,7.911534E-2,4.824361E-2,1.4662623E-1,2.5499496E-1,9.0958014E-2,1.3538311E-1,1.352881E-1,8.383727E-2,3.9767987E-1,-1.4372946E-1,2.2753479E-1,8.8986345E-2,1.4308856E-1,3.6591306E-2,7.108668E-2,4.4872824E-2,2.3195021E-1,9.009882E-2,1.2271104E-1,1.9934377E-1,1.8842316E-1,2.4230303E-1,3.8074952E-1,1.1968796E0,2.4645987E-1,5.6875993E-2,1.5533859E-1,1.7369465E0,3.7700522E-1,8.774951E-2,4.8459522E-2,3.848752E-2,2.7545518E-1,7.871948E-2,2.0116839E-1,3.5572495E-2,6.9586076E-2,1.9761722E-1,6.6096455E-2,2.1429946E-1,2.64468E-1,6.883267E-2,1.608031E-1,7.641509E-1,3.8553733E-2,5.925303E-2,4.9154034E-1,8.4653467E-1,1.6041276E-1,1.0466893E0,-8.490566E-2,1.981132E-1,1.3016562E-1,8.772707E-1,4.6945146E-1,6.950672E-2,2.8251117E-1,-9.0480104E-2,-1.5598725E-1,4.4366196E-1,3.2601798E-1,6.158143E-1,1.0359712E0,1.8203449E-1,1.0018158E0,-1.2838806E-2,4.4315928E-1,-3.7455413E-2,4.8045138E-1,2.2714987E-1,-1.4085668E-1,5.6603767E-2,6.527794E-1,3.8650304E-1,6.108596E-2,5.053476E-1,5.6761257E-2,-1.5292753E-1,-1.13168806E-1,3.9797547E-1,-1.5917543E-1,5.6603767E-2,1.5621119E-2,4.8186526E-1,9.507042E-1,-8.490566E-2,6.0682908E-2,7.641509E-1],"split_indices":[150,246,178,305,480,305,252,125,485,246,0,456,399,480,108,80,494,343,36,62,342,150,253,305,0,309,225,178,0,274,242,129,178,305,319,298,319,242,61,390,30,480,261,36,0,379,22,225,0,0,0,0,0,0,0,0,0,0,0,0,0,0,0,0,0,0,0,0,0,0,0,0,0,0,0,0,0,0,0,0,0,0,0,0,0,0,0,0,0],"split_type":[0,0,0,0,0,0,0,0,0,0,0,0,0,0,0,0,0,0,0,0,0,0,0,0,0,0,0,0,0,0,0,0,0,0,0,0,0,0,0,0,0,0,0,0,0,0,0,0,0,0,0,0,0,0,0,0,0,0,0,0,0,0,0,0,0,0,0,0,0,0,0,0,0,0,0,0,0,0,0,0,0,0,0,0,0,0,0,0,0],"sum_hessian":[1.165609E4,9.064285E3,2.5918047E3,8.1764985E3,8.8778674E2,2.4717158E3,1.200889E2,7.828552E3,3.479467E2,8.793245E2,8.462223E0,2.4412268E3,3.0488892E1,1.1212445E2,7.964445E0,6.974863E3,8.5368896E2,2.6494223E2,8.300445E1,6.56569E2,2.2275557E2,1.3608002E3,1.0804268E3,2.849778E1,1.9911113E0,1.0913779E2,2.986667E0,2.2400002E0,5.724445E0,6.644214E3,3.3064893E2,1.1884445E2,7.348445E2,2.2549335E2,3.944889E1,7.454223E1,8.462223E0,6.483556E2,8.213334E0,2.1342224E2,9.333334E0,4.5509338E2,9.057067E2,1.0793068E3,1.1200001E0,2.3644447E1,4.853334E0,1.0789334E2,1.2444446E0,1.368889E0,1.617778E0,1.1200001E0,1.1200001E0,6.595058E3,4.915556E1,3.0488892E2,2.5760002E1,1.0901334E2,9.831112E0,7.3111115E2,3.7333336E0,1.2506668E2,1.00426674E2,3.297778E1,6.471112E0,7.2426674E1,2.1155558E0,5.724445E0,2.737778E0,6.033067E2,4.5048893E1,7.0933337E0,1.1200001E0,1.861689E2,2.7253336E1,7.8400006E0,1.4933335E0,3.5840002E2,9.6693344E1,8.983645E2,7.3422227E0,1.0781868E3,1.1200001E0,1.6924446E1,6.7200007E0,3.7333336E0,1.1200001E0,1.06773346E2,1.1200001E0],"tree_param":{"num_deleted":"0","num_feature":"500","num_nodes":"89","size_leaf_vector":"1"}},{"base_weights":[-5.031559E-1,-5.0708425E-1,1.5381286E0,-5.096131E-1,-1.0002245E-2,-5.103779E-1,9.657102E-1,-1.010063E-1,7.128713E-1,-5.16835E-1,-4.003656E-1,3.3135086E-1,6.226415E-1,-2.232956E-1,1.8265681E0,-5.1827127E-1,-3.012657E-1,-4.0942416E-1,7.641509E-1,-1.6216217E-1,3.3962265E-1,-2.8909224E-1,4.4554454E-1,1.4438502E-1,7.641509E-1,-1.5561551E-1,1.713469E-2,-1.0152621E-1,3.3962265E-1,-1.2458844E-1,3.3549434E-1,1.5280132E-2,-9.625669E-2,-1.019261E-1,3.3962265E-1],"categories":[],"categories_nodes":[],"categories_segments":[],"categories_sizes":[],"default_left":[0,0,0,0,0,0,0,0,0,0,0,0,0,0,0,0,0,0,0,0,0,0,0,0,0,0,0,0,0,0,0,0,0,0,0],"id":1,"left_children":[1,3,-1,5,7,9,11,13,-1,15,17,19,-1,21,23,25,27,29,-1,31,-1,33,-1,-1,-1,-1,-1,-1,-1,-1,-1,-1,-1,-1,-1],"loss_changes":[2.6042798E2,1.4638916E1,0E0,1.3571045E1,1.3266569E1,8.022949E0,3.7833948E0,1.4254684E1,0E0,3.2312012E0,1.8311172E1,2.2507477E0,0E0,6.7387867E0,2.276906E0,2.8251953E0,4.3664174E0,6.25486E0,0E0,1.5536755E-1,0E0,4.3362174E0,0E0,0E0,0E0,0E0,0E0,0E0,0E0,0E0,0E0,0E0,0E0,0E0,0E0],"parents":[2147483647,0,0,1,1,3,3,4,4,5,5,6,6,7,7,9,9,10,10,11,11,13,13,14,14,15,15,16,16,17,17,19,19,21,21],"right_children":[2,4,-1,6,8,10,12,14,-1,16,18,20,-1,22,24,26,28,30,-1,32,-1,34,-1,-1,-1,-1,-1,-1,-1,-1,-1,-1,-1,-1,-1],"split_conditions":[5.401128E-1,2.9591492E-1,1.5381286E0,6.6846514E-1,2.3615384E-1,8.556879E-2,1.2612641E-1,2.4037467E-1,7.128713E-1,2.1494427E-1,5.072504E-1,4.125417E-2,6.226415E-1,6.8343684E-2,3.4925485E-1,3.552835E-1,2.1324494E-1,4.733053E-1,7.641509E-1,7.494197E-1,3.3962265E-1,1.0242899E-1,4.4554454E-1,1.4438502E-1,7.641509E-1,-1.5561551E-1,1.713469E-2,-1.0152621E-1,3.3962265E-1,-1.2458844E-1,3.3549434E-1,1.5280132E-2,-9.625669E-2,-1.019261E-1,3.3962265E-1],"split_indices":[19,161,0,167,370,481,161,339,0,53,414,242,0,149,161,296,238,4,0,167,0,208,0,0,0,0,0,0,0,0,0,0,0,0,0],"split_type":[0,0,0,0,0,0,0,0,0,0,0,0,0,0,0,0,0,0,0,0,0,0,0,0,0,0,0,0,0,0,0,0,0,0,0],"sum_hessian":[1.165609E4,1.1648872E4,7.217778E0,1.1589886E4,5.898667E1,1.1584534E4,5.3511114E0,5.7742226E1,1.2444446E0,1.0938792E4,6.4574225E2,4.2311115E0,1.1200001E0,5.5128895E1,2.6133335E0,1.0864996E4,7.379556E1,6.4462225E2,1.1200001E0,3.1111114E0,1.1200001E0,5.388445E1,1.2444446E0,1.4933335E0,1.1200001E0,1.0856658E4,8.337778E0,7.267556E1,1.1200001E0,6.4288007E2,1.7422223E0,1.617778E0,1.4933335E0,5.276445E1,1.1200001E0],"tree_param":{"num_deleted":"0","num_feature":"500","num_nodes":"35","size_leaf_vector":"1"}},{"base_weights":[-4.9449167E-1,-5.1677704E-1,4.2456236E-1,-5.206455E-1,-1.8261223E-1,1.4650324E-1,2.258163E0,-5.2308446E-1,-2.983822E-1,-2.595586E-1,2.27027E0,9.604368E-2,2.29927E0,3.2598631E0,9.508408E-1,-5.2352756E-1,2.8750822E-1,-3.5224518E-1,7.028863E-1,-3.061881E-1,8.7136924E-1,8.663101E-1,2.4448216E-1,3.9338924E-2,1.8923075E0,8.5785955E-1,1.4438502E-1,3.5362966E0,-9.287055E-2,1.4336183E0,-1.2847967E-1,-5.238821E-1,2.3917992E-1,-1.3203807E-1,6.226415E-1,-3.752054E-1,3.3962265E-1,-3.4273532E-1,1.1096432E0,1.2972972E0,-8.9108914E-2,2.930522E-3,2.1070232E0,2.6253185E0,-6.686483E-3,4.1120768E0,1.3868612E0,2.0362785E0,3.1120327E-1,-1.2845674E-1,1.7821781E-1,-1.5757221E-1,-1.03442974E-1,2.0332937E-1,-1.0912982E-1,-1.1957764E-1,3.3962265E-1,-1.12164505E-1,4.4554454E-1,4.4554453E-2,4.8113206E-1,5.6603767E-2,4.9479938E-1,-7.830891E-3,5.2437574E-1,7.3255813E-1,1.981132E-1,9E-1,1.981132E-1,1.3204691E0,1.7821781E-1,-4.142693E-2,9.3208826E-1,2.8198433E-1,9.171974E-1,-1.1623617E-1,3.3549434E-1],"categories":[],"categories_nodes":[],"categories_segments":[],"categories_sizes":[],"default_left":[0,0,0,0,0,0,0,0,0,0,0,0,0,0,0,0,0,0,0,0,0,0,0,0,0,0,0,0,0,0,0,0,0,0,0,0,0,0,0,0,0,0,0,0,0,0,0,0,0,0,0,0,0,0,0,0,0,0,0,0,0,0,0,0,0,0,0,0,0,0,0,0,0,0,0,0,0],"id":2,"left_children":[1,3,5,7,9,11,13,15,17,19,21,23,25,27,29,31,33,35,-1,37,39,-1,-1,41,43,-1,-1,45,-1,47,49,51,53,-1,-1,55,-1,57,59,61,-1,63,65,67,-1,69,71,73,75,-1,-1,-1,-1,-1,-1,-1,-1,-1,-1,-1,-1,-1,-1,-1,-1,-1,-1,-1,-1,-1,-1,-1,-1,-1,-1,-1,-1],"loss_changes":[2.3897339E2,1.4618164E1,1.4065274E2,5.942627E0,2.5463581E1,2.5977743E1,4.4492157E1,4.1467285E0,1.853067E1,7.0526943E0,1.3407955E0,2.4034817E1,4.205406E0,2.0991226E1,9.135045E0,3.1328125E0,9.661873E0,4.6108885E0,0E0,6.813443E0,3.0505495E0,0E0,0E0,1.7344276E1,1.0194326E1,0E0,0E0,1.7558533E1,0E0,7.450449E0,1.6027654E0,2.5234375E0,1.7944199E0,0E0,0E0,4.7415943E0,0E0,7.498684E0,1.3596668E0,1.2932534E0,0E0,1.1570921E1,3.1855583E-1,1.8701553E0,0E0,1.1964478E1,1.4803451E1,5.6287727E0,3.453261E0,0E0,0E0,0E0,0E0,0E0,0E0,0E0,0E0,0E0,0E0,0E0,0E0,0E0,0E0,0E0,0E0,0E0,0E0,0E0,0E0,0E0,0E0,0E0,0E0,0E0,0E0,0E0,0E0],"parents":[2147483647,0,0,1,1,2,2,3,3,4,4,5,5,6,6,7,7,8,8,9,9,10,10,11,11,12,12,13,13,14,14,15,15,16,16,17,17,19,19,20,20,23,23,24,24,27,27,29,29,30,30,31,31,32,32,35,35,37,37,38,38,39,39,41,41,42,42,43,43,45,45,46,46,47,47,48,48],"right_children":[2,4,6,8,10,12,14,16,18,20,22,24,26,28,30,32,34,36,-1,38,40,-1,-1,42,44,-1,-1,46,-1,48,50,52,54,-1,-1,56,-1,58,60,62,-1,64,66,68,-1,70,72,74,76,-1,-1,-1,-1,-1,-1,-1,-1,-1,-1,-1,-1,-1,-1,-1,-1,-1,-1,-1,-1,-1,-1,-1,-1,-1,-1,-1,-1],"split_conditions":[8.32489E-2,1.4031556E-1,9.907258E-2,1.360212E-1,2.1558219E-1,1.4439797E-1,8.936049E-2,3.091808E-1,1.8548027E-1,1.531033E-1,6.415459E-2,4.542068E-2,8.09298E-2,8.630875E-2,1.0940578E-1,6.176924E-1,4.5345753E-2,2.2132085E-1,7.028863E-1,1.851792E-1,1.2032678E-1,8.663101E-1,2.4448216E-1,1.7438425E-1,3.944113E-2,8.5785955E-1,1.4438502E-1,5.5121005E-2,-9.287055E-2,8.910421E-2,1.9156569E-1,2.1424016E-1,2.8100712E-2,-1.3203807E-1,6.226415E-1,2.4213594E-1,3.3962265E-1,2.7924988E-1,2.6843977E-1,3.970439E-2,-8.9108914E-2,9.886802E-2,1.239308E-1,6.0227074E-2,-6.686483E-3,8.5142195E-2,7.047377E-2,6.273786E-2,1.0090809E-1,-1.2845674E-1,1.7821781E-1,-1.5757221E-1,-1.03442974E-1,2.0332937E-1,-1.0912982E-1,-1.1957764E-1,3.3962265E-1,-1.12164505E-1,4.4554454E-1,4.4554453E-2,4.8113206E-1,5.6603767E-2,4.9479938E-1,-7.830891E-3,5.2437574E-1,7.3255813E-1,1.981132E-1,9E-1,1.981132E-1,1.3204691E0,1.7821781E-1,-4.142693E-2,9.3208826E-1,2.8198433E-1,9.171974E-1,-1.1623617E-1,3.3549434E-1],"split_indices":[204,489,167,482,167,174,275,381,15,72,275,15,332,242,488,107,80,167,0,236,22,0,0,285,332,0,0,379,0,323,488,167,7,0,0,170,0,472,489,275,0,19,30,46,0,320,20,160,98,0,0,0,0,0,0,0,0,0,0,0,0,0,0,0,0,0,0,0,0,0,0,0,0,0,0,0,0],"split_type":[0,0,0,0,0,0,0,0,0,0,0,0,0,0,0,0,0,0,0,0,0,0,0,0,0,0,0,0,0,0,0,0,0,0,0,0,0,0,0,0,0,0,0,0,0,0,0,0,0,0,0,0,0,0,0,0,0,0,0,0,0,0,0,0,0,0,0,0,0,0,0,0,0,0,0,0,0],"sum_hessian":[1.165609E4,1.138057E4,2.7552002E2,1.1249778E4,1.3079112E2,2.401778E2,3.5342224E1,1.112633E4,1.234489E2,1.2768001E2,3.1111114E0,2.356978E2,4.4800005E0,1.9164446E1,1.6177778E1,1.1120605E4,5.724445E0,1.2183112E2,1.617778E0,1.23324455E2,4.355556E0,1.4933335E0,1.617778E0,2.2947557E2,6.222223E0,2.986667E0,1.4933335E0,1.7795557E1,1.368889E0,1.0951112E1,5.226667E0,1.1115752E4,4.853334E0,4.604445E0,1.1200001E0,1.2071112E2,1.1200001E0,1.2096001E2,2.3644447E0,3.1111114E0,1.2444446E0,2.264889E2,2.986667E0,4.2311115E0,1.9911113E0,1.3315557E1,4.4800005E0,6.5955563E0,4.355556E0,3.9822226E0,1.2444446E0,1.1030134E4,8.561778E1,2.737778E0,2.1155558E0,1.1959112E2,1.1200001E0,1.1971557E2,1.2444446E0,1.2444446E0,1.1200001E0,1.1200001E0,1.9911113E0,2.2375113E2,2.737778E0,1.8666668E0,1.1200001E0,3.1111114E0,1.1200001E0,1.2071112E1,1.2444446E0,2.8622224E0,1.617778E0,4.106667E0,2.4888892E0,2.6133335E0,1.7422223E0],"tree_param":{"num_deleted":"0","num_feature":"500","num_nodes":"77","size_leaf_vector":"1"}},{"base_weights":[-2.261571E-1,-5.3468513E-1,2.2449846E0,-1.6069995E-1,1.1612903E0],"categories":[],"categories_nodes":[],"categories_segments":[],"categories_sizes":[],"default_left":[0,0,0,0,0],"id":3,"left_children":[1,3,-1,-1,-1],"loss_changes":[2.77313E4,5.0535156E1,0E0,0E0,0E0],"parents":[2147483647,0,0,1,1],"right_children":[2,4,-1,-1,-1],"split_conditions":[1.0442365E-1,3.6581454E-1,2.2449846E0,-1.6069995E-1,1.1612903E0],"split_indices":[421,427,0,0,0],"split_type":[0,0,0,0,0],"sum_hessian":[1.165609E4,1.1208463E4,4.476267E2,1.1206846E4,1.617778E0],"tree_param":{"num_deleted":"0","num_feature":"500","num_nodes":"5","size_leaf_vector":"1"}},{"base_weights":[-5.2185696E-1,-5.2219635E-1,5.351521E-1,-5.2236515E-1,5.7324834E-2,-1.2838806E-2,3.3962265E-1,-5.2277327E-1,-2.5775498E-1,-5.233354E-1,-3.3849016E-1,-4.0080395E-1,3.3962265E-1,-5.2358687E-1,-9.202456E-2,-4.1217768E-1,2.6470587E-1,-1.5129007E-1,1.16693676E-1,-1.5712656E-1,-1.1749353E-2,-9.3445815E-2,1.981132E-1,-1.3934325E-1,1.981132E-1],"categories":[],"categories_nodes":[],"categories_segments":[],"categories_sizes":[],"default_left":[0,0,0,0,0,0,0,0,0,0,0,0,0,0,0,0,0,0,0,0,0,0,0,0,0],"id":4,"left_children":[1,3,5,7,-1,-1,-1,9,11,13,15,17,-1,19,21,23,-1,-1,-1,-1,-1,-1,-1,-1,-1],"loss_changes":[4.4611816E0,1.5024414E0,1.5096756E0,1.1237793E0,0E0,0E0,0E0,1.027832E0,4.413229E0,1.2092285E0,3.8009934E0,1.7325025E0,0E0,9.2456055E-1,1.5215471E0,2.3662663E0,0E0,0E0,0E0,0E0,0E0,0E0,0E0,0E0,0E0],"parents":[2147483647,0,0,1,1,2,2,3,3,7,7,8,8,9,9,10,10,11,11,13,13,14,14,15,15],"right_children":[2,4,6,8,-1,-1,-1,10,12,14,16,18,-1,20,22,24,-1,-1,-1,-1,-1,-1,-1,-1,-1],"split_conditions":[6.640471E-1,2.100576E-1,3.7143603E-2,3.3913168E-1,5.7324834E-2,-1.2838806E-2,3.3962265E-1,3.0831265E-1,5.424455E-2,4.223157E-1,5.7968635E-2,1.4077213E-1,3.3962265E-1,2.2107123E-1,1.0512809E-1,1.1941635E-1,2.6470587E-1,-1.5129007E-1,1.16693676E-1,-1.5712656E-1,-1.1749353E-2,-9.3445815E-2,1.981132E-1,-1.3934325E-1,1.981132E-1],"split_indices":[4,18,401,117,0,0,0,42,138,493,468,4,0,314,390,200,0,0,0,0,0,0,0,0,0],"split_type":[0,0,0,0,0,0,0,0,0,0,0,0,0,0,0,0,0,0,0,0,0,0,0,0,0],"sum_hessian":[1.165609E4,1.16528545E4,3.235556E0,1.1650365E4,2.4888892E0,2.1155558E0,1.1200001E0,1.163145E4,1.8915558E1,1.1594241E4,3.7208893E1,1.7795557E1,1.1200001E0,1.1587272E4,6.968889E0,3.5715557E1,1.4933335E0,1.6053335E1,1.7422223E0,1.1583165E4,4.106667E0,5.8488894E0,1.1200001E0,3.459556E1,1.1200001E0],"tree_param":{"num_deleted":"0","num_feature":"500","num_nodes":"25","size_leaf_vector":"1"}},{"base_weights":[-3.8897645E-1,-4.5992285E-1,1.0316442E0,-4.7364163E-1,2.709375E-1,9.046694E-1,3.1306016E0,-4.7977462E-1,4.1437927E-1,7.50053E-2,2.2244701E0,7.2219735E-1,2.3923573E0,3.3146567E0,-9.625669E-2,-4.8635635E-1,2.5071922E-1,-1.4001885E-1,1.5767899E0,-3.747468E-1,2.804798E-1,1.229508E0,3.5514572E0,8.70225E-1,9.799094E-3,2.5503354E0,-1.7313747E-1,3.6847296E0,1.2267658E0,-5.021983E-1,-2.5458854E-1,7.5566724E-2,9.7251576E-1,-2.999105E-1,7.4634933E-1,1.2036108E0,1.0925926E0,-4.729996E-1,1.1565017E0,1.6832843E-1,1.2648758E0,1.6538634E0,-1.1294584E-1,5.6603767E-2,4.114765E0,6.551739E-1,1.5702214E0,-8.668017E-2,1.3033358E0,2.6966732E0,-1.24851376E-1,-1.0912982E-1,5.6603767E-2,3.9268098E0,8.641975E-1,1.9332565E0,-1.2838806E-2,-1.5113977E-1,1.46688325E-2,-9.857825E-2,2.1197845E-1,-2.0870846E-3,5.2437574E-1,3.602921E-1,-1.1464969E-1,-1.1491747E-1,3.1395346E-1,3.369489E-1,-1.0465116E-1,4.5989648E-1,1.672862E-2,-1.5235792E-1,1.7821781E-1,6.226415E-1,7.29335E-3,2.9268576E-2,3.8838416E-1,5.132128E-1,8.919717E-3,-2.3778077E-2,6.6389054E-1,1.4371096E0,2.870544E-1,1.793945E-1,9.7323334E-1,5.172784E-1,7.8455776E-2,-4.3804616E-2,6.226415E-1,5.642202E-1,-9.287055E-2,8.980437E-1,2.922657E-1,5.6603767E-2,-9.932089E-2,1.2689402E0,4.6216217E-1,-8.490566E-2,4.8113206E-1,7.7309567E-1,5.6603767E-2],"categories":[],"categories_nodes":[],"categories_segments":[],"categories_sizes":[],"default_left":[0,0,0,0,0,0,0,0,0,0,0,0,0,0,0,0,0,0,0,0,0,0,0,0,0,0,0,0,0,0,0,0,0,0,0,0,0,0,0,0,0,0,0,0,0,0,0,0,0,0,0,0,0,0,0,0,0,0,0,0,0,0,0,0,0,0,0,0,0,0,0,0,0,0,0,0,0,0,0,0,0,0,0,0,0,0,0,0,0,0,0,0,0,0,0,0,0,0,0,0,0],"id":5,"left_children":[1,3,5,7,9,11,13,15,17,19,21,23,25,27,-1,29,31,33,35,37,39,41,43,45,47,49,51,53,55,57,59,61,63,65,67,69,-1,71,73,75,77,79,-1,-1,81,83,85,87,89,91,93,-1,-1,95,97,99,-1,-1,-1,-1,-1,-1,-1,-1,-1,-1,-1,-1,-1,-1,-1,-1,-1,-1,-1,-1,-1,-1,-1,-1,-1,-1,-1,-1,-1,-1,-1,-1,-1,-1,-1,-1,-1,-1,-1,-1,-1,-1,-1,-1,-1],"loss_changes":[1.175368E3,1.11456055E2,1.4502429E2,5.9557617E1,7.8380615E1,1.4066406E2,2.0909027E1,5.2166504E1,4.874269E1,1.743637E1,2.028495E1,4.9414078E1,2.3492767E1,1.8464111E1,0E0,3.926367E1,1.223014E1,7.5789394E0,1.4417744E1,9.459653E0,1.4062226E1,8.937105E0,1.3376007E1,5.738217E1,1.0301602E1,2.1335724E1,3.6077237E-1,1.3518494E1,5.4444056E0,8.883057E0,4.920233E1,1.0970048E1,6.31448E0,5.4028893E0,3.783124E0,8.291E0,0E0,2.3988266E0,3.967988E0,9.2174015E0,7.146982E0,9.706036E0,0E0,0E0,8.966377E0,4.2265015E1,1.7788223E1,1.0170112E1,5.9174595E0,2.3106628E1,3.041347E-1,0E0,0E0,9.772583E0,3.2028883E0,3.8511877E0,0E0,0E0,0E0,0E0,0E0,0E0,0E0,0E0,0E0,0E0,0E0,0E0,0E0,0E0,0E0,0E0,0E0,0E0,0E0,0E0,0E0,0E0,0E0,0E0,0E0,0E0,0E0,0E0,0E0,0E0,0E0,0E0,0E0,0E0,0E0,0E0,0E0,0E0,0E0,0E0,0E0,0E0,0E0,0E0,0E0],"parents":[2147483647,0,0,1,1,2,2,3,3,4,4,5,5,6,6,7,7,8,8,9,9,10,10,11,11,12,12,13,13,15,15,16,16,17,17,18,18,19,19,20,20,21,21,22,22,23,23,24,24,25,25,26,26,27,27,28,28,29,29,30,30,31,31,32,32,33,33,34,34,35,35,37,37,38,38,39,39,40,40,41,41,44,44,45,45,46,46,47,47,48,48,49,49,50,50,53,53,54,54,55,55],"right_children":[2,4,6,8,10,12,14,16,18,20,22,24,26,28,-1,30,32,34,36,38,40,42,44,46,48,50,52,54,56,58,60,62,64,66,68,70,-1,72,74,76,78,80,-1,-1,82,84,86,88,90,92,94,-1,-1,96,98,100,-1,-1,-1,-1,-1,-1,-1,-1,-1,-1,-1,-1,-1,-1,-1,-1,-1,-1,-1,-1,-1,-1,-1,-1,-1,-1,-1,-1,-1,-1,-1,-1,-1,-1,-1,-1,-1,-1,-1,-1,-1,-1,-1,-1,-1],"split_conditions":[4.142434E-2,4.58227E-2,2.087561E-1,1.815461E-1,1.15057975E-1,5.9122574E-2,5.7103533E-2,1.3763337E-1,5.8725815E-2,3.6488436E-2,6.362267E-2,3.0912843E-2,1.0515638E-1,8.1273206E-2,-9.625669E-2,6.711234E-2,3.6158133E-1,1.4171831E-1,3.7026855E-1,3.9846834E-2,1.6319996E-1,4.7747884E-2,9.134015E-2,7.911534E-2,2.3667349E-1,1.7294058E-1,3.0912843E-2,1.9993176E-1,3.944113E-2,3.5664636E-1,6.882797E-2,3.910993E-2,2.0176451E-1,5.00457E-1,2.9960465E-1,3.8883105E-2,1.0925926E0,1.3226093E-1,7.694537E-2,2.2865437E-1,3.05439E-2,3.6488436E-2,-1.1294584E-1,5.6603767E-2,1.330957E-1,1.5173839E-1,1.585106E-1,2.508787E-1,8.60403E-2,1.3830048E-1,2.8100712E-2,-1.0912982E-1,5.6603767E-2,2.552493E-1,1.0906755E-1,2.813476E-1,-1.2838806E-2,-1.5113977E-1,1.46688325E-2,-9.857825E-2,2.1197845E-1,-2.0870846E-3,5.2437574E-1,3.602921E-1,-1.1464969E-1,-1.1491747E-1,3.1395346E-1,3.369489E-1,-1.0465116E-1,4.5989648E-1,1.672862E-2,-1.5235792E-1,1.7821781E-1,6.226415E-1,7.29335E-3,2.9268576E-2,3.8838416E-1,5.132128E-1,8.919717E-3,-2.3778077E-2,6.6389054E-1,1.4371096E0,2.870544E-1,1.793945E-1,9.7323334E-1,5.172784E-1,7.8455776E-2,-4.3804616E-2,6.226415E-1,5.642202E-1,-9.287055E-2,8.980437E-1,2.922657E-1,5.6603767E-2,-9.932089E-2,1.2689402E0,4.6216217E-1,-8.490566E-2,4.8113206E-1,7.7309567E-1,5.6603767E-2],"split_indices":[170,243,121,69,269,95,459,95,318,85,30,22,379,200,0,246,95,121,121,52,312,279,243,246,243,129,22,473,332,121,269,268,325,69,69,325,0,32,396,171,150,85,0,0,245,499,271,468,20,61,7,0,0,129,187,69,0,0,0,0,0,0,0,0,0,0,0,0,0,0,0,0,0,0,0,0,0,0,0,0,0,0,0,0,0,0,0,0,0,0,0,0,0,0,0,0,0,0,0,0,0],"split_type":[0,0,0,0,0,0,0,0,0,0,0,0,0,0,0,0,0,0,0,0,0,0,0,0,0,0,0,0,0,0,0,0,0,0,0,0,0,0,0,0,0,0,0,0,0,0,0,0,0,0,0,0,0,0,0,0,0,0,0,0,0,0,0,0,0,0,0,0,0,0,0,0,0,0,0,0,0,0,0,0,0,0,0,0,0,0,0,0,0,0,0,0,0,0,0,0,0,0,0,0,0],"sum_hessian":[1.165609E4,1.11023125E4,5.5377783E2,1.0898099E4,2.0421335E2,5.2353784E2,3.0240002E1,1.0823806E4,7.429334E1,1.8654224E2,1.7671112E1,4.6766226E2,5.587556E1,2.874667E1,1.4933335E0,1.0727485E4,9.632001E1,5.089778E1,2.3395557E1,5.8240005E1,1.2830223E2,1.1200001E1,6.471112E0,3.8702225E2,8.064001E1,5.2640003E1,3.235556E0,2.376889E1,4.9777784E0,1.0040054E4,6.8743115E2,7.840001E1,1.7920002E1,4.3680004E1,7.217778E0,2.1155558E1,2.2400002E0,5.537778E1,2.8622224E0,1.1623112E2,1.2071112E1,8.835556E0,2.3644447E0,1.1200001E0,5.3511114E0,2.975467E2,8.947556E1,7.591112E1,4.7288895E0,4.9902225E1,2.737778E0,2.1155558E0,1.1200001E0,2.152889E1,2.2400002E0,2.8622224E0,2.1155558E0,1.0011059E4,2.8995558E1,6.388978E2,4.8533337E1,7.566223E1,2.737778E0,1.5431112E1,2.4888892E0,4.1813335E1,1.8666668E0,5.3511114E0,1.8666668E0,1.6177778E1,4.9777784E0,5.413334E1,1.2444446E0,1.1200001E0,1.7422223E0,1.1038223E2,5.8488894E0,8.586667E0,3.4844446E0,2.3644447E0,6.471112E0,3.9822226E0,1.368889E0,2.9232004E2,5.226667E0,7.97689E1,9.706668E0,7.4791115E1,1.1200001E0,3.3600004E0,1.368889E0,4.1937782E1,7.964445E0,1.1200001E0,1.617778E0,1.841778E1,3.1111114E0,1.1200001E0,1.1200001E0,1.7422223E0,1.1200001E0],"tree_param":{"num_deleted":"0","num_feature":"500","num_nodes":"101","size_leaf_vector":"1"}},{"base_weights":[-5.199697E-1,-5.201363E-1,-1.8888795E-8,-5.203023E-1,-5.0977077E-2,7.407407E-2,-9.625669E-2,-5.203867E-1,5.6603767E-2,7.407407E-2,-1.06983654E-1,-5.204711E-1,5.6603767E-2,-5.205555E-1,5.6603767E-2,-1.5628594E-1,-9.68734E-2],"categories":[],"categories_nodes":[],"categories_segments":[],"categories_sizes":[],"default_left":[0,0,0,0,0,0,0,0,0,0,0,0,0,0,0,0,0],"id":6,"left_children":[1,3,5,7,9,-1,-1,11,-1,-1,-1,13,-1,15,-1,-1,-1],"loss_changes":[1.0097656E0,8.8134766E-1,4.5421535E-1,7.95166E-1,5.6432325E-1,0E0,0E0,7.949219E-1,0E0,0E0,0E0,7.95166E-1,0E0,7.470703E-1,0E0,0E0,0E0],"parents":[2147483647,0,0,1,1,2,2,3,3,4,4,7,7,11,11,13,13],"right_children":[2,4,6,8,10,-1,-1,12,-1,-1,-1,14,-1,16,-1,-1,-1],"split_conditions":[4.8673218E-1,4.5904893E-1,3.970439E-2,7.0950127E-1,4.417935E-2,7.407407E-2,-9.625669E-2,6.7573065E-1,5.6603767E-2,7.407407E-2,-1.06983654E-1,6.6368675E-1,5.6603767E-2,2.5412175E-1,5.6603767E-2,-1.5628594E-1,-9.68734E-2],"split_indices":[483,240,275,133,359,0,0,348,0,0,0,440,0,465,0,0,0],"split_type":[0,0,0,0,0,0,0,0,0,0,0,0,0,0,0,0,0],"sum_hessian":[1.165609E4,1.1652356E4,3.7333336E0,1.1648125E4,4.2311115E0,2.2400002E0,1.4933335E0,1.1647006E4,1.1200001E0,2.2400002E0,1.9911113E0,1.1645886E4,1.1200001E0,1.1644766E4,1.1200001E0,1.1619752E4,2.5013336E1],"tree_param":{"num_deleted":"0","num_feature":"500","num_nodes":"17","size_leaf_vector":"1"}},{"base_weights":[4.389746E0,3.35367E0,6.6663594E0,3.8114786E0,2.6846698E-1,5.7056932E0,7.0539575E0,4.1784883E0,1.10588714E-1,2.5946136E0,-4.468321E-1,5.122826E0,6.4799376E0,7.109632E0,4.298969E0,3.7975786E0,6.4259996E0,4.6163183E-3,1.895632E0,2.2449389E0,5.666544E0,-4.992532E-1,3.0234284E0,4.7607636E0,6.541228E0,6.63112E0,4.4797683E0,7.182049E0,5.4148684E0,4.448601E0,-9.932089E-2,3.3046587E0,5.3495774E0,6.5212154E0,4.069565E0,-9.286991E-2,2.1623406E0,1.7309982E0,3.8079686E0,5.9154925E0,5.232558E-1,-5.2214456E-1,2.030769E0,3.642555E0,4.7770697E-1,4.893124E0,1.3728813E0,6.5899343E0,3.1188118E-1,6.7085E0,2.7116702E0,4.73218E0,1.354515E0,7.2146354E0,4.972929E0,5.706127E0,1.0373675E0,4.538187E0,5.6603767E-2,8.9604867E-1,1.5820233E0,1.7015939E0,1.1455444E0,1.8853E0,2.206386E0,1.3126199E0,2.6470587E-1,-3.6363028E-2,1.3269917E0,9.765763E-1,2.903225E-2,4.2194432E-1,1.4370925E0,1.2545131E0,5.045766E-1,1.8342034E0,3.3962265E-1,-1.5857019E-1,4.1860464E-1,7.380409E-1,3.37711E-2,1.2365439E0,2.4448216E-1,3.3962265E-1,-9.287055E-2,1.552275E0,1.1109434E0,5.730437E-1,-8.029481E-2,2.005539E0,1.0182481E0,2.0207467E0,4.8726112E-1,1.3586724E0,-1.2487612E-1,1.5046984E0,5.1469046E-1,5.5429494E-1,4.4554453E-2,2.1715271E0,1.3695651E0,1.5799725E0,3.3110365E-1,1.7355964E0,2.26094E-1,9.8663104E-1,3.088532E-3,1.3930012E0,2.4448216E-1],"categories":[],"categories_nodes":[],"categories_segments":[],"categories_sizes":[],"default_left":[0,0,0,0,0,0,0,0,0,0,0,0,0,0,0,0,0,0,0,0,0,0,0,0,0,0,0,0,0,0,0,0,0,0,0,0,0,0,0,0,0,0,0,0,0,0,0,0,0,0,0,0,0,0,0,0,0,0,0,0,0,0,0,0,0,0,0,0,0,0,0,0,0,0,0,0,0,0,0,0,0,0,0,0,0,0,0,0,0,0,0,0,0,0,0,0,0,0,0,0,0,0,0,0,0,0,0,0,0],"id":7,"left_children":[1,3,5,7,9,11,13,15,17,19,21,23,25,27,29,31,33,35,-1,37,39,41,43,45,47,49,51,53,55,57,-1,59,61,63,65,67,69,71,73,75,-1,77,79,81,83,85,87,89,-1,91,93,95,97,99,101,103,105,107,-1,-1,-1,-1,-1,-1,-1,-1,-1,-1,-1,-1,-1,-1,-1,-1,-1,-1,-1,-1,-1,-1,-1,-1,-1,-1,-1,-1,-1,-1,-1,-1,-1,-1,-1,-1,-1,-1,-1,-1,-1,-1,-1,-1,-1,-1,-1,-1,-1,-1,-1],"loss_changes":[2.7473734E4,1.1317125E4,1.3169219E3,9.477125E3,1.7257856E3,4.4202734E2,3.671328E2,5.41025E3,4.1481683E2,2.4928735E2,1.4587477E2,2.7983984E2,1.05916016E2,2.7282812E2,3.880719E1,4.1368203E3,1.7955469E2,1.3082346E2,0E0,1.7065308E2,1.3382141E1,4.638713E1,1.7096352E1,2.1125293E2,2.5429688E1,1.0764258E2,2.08844E1,1.3925781E2,1.3196606E2,1.9091919E1,0E0,2.5648906E3,6.2372266E2,1.2774609E2,3.3505188E1,7.6702255E1,6.037622E1,1.5993356E2,3.568744E1,1.4353699E1,0E0,1.0299423E1,5.6713696E0,9.463753E0,2.1478195E0,1.3720605E2,1.7845428E1,1.3579102E1,0E0,4.548633E1,5.7084885E1,1.8428528E1,2.09655E0,1.1790625E2,3.802411E1,3.5322754E1,1.8393028E1,1.62417E1,0E0,0E0,0E0,0E0,0E0,0E0,0E0,0E0,0E0,0E0,0E0,0E0,0E0,0E0,0E0,0E0,0E0,0E0,0E0,0E0,0E0,0E0,0E0,0E0,0E0,0E0,0E0,0E0,0E0,0E0,0E0,0E0,0E0,0E0,0E0,0E0,0E0,0E0,0E0,0E0,0E0,0E0,0E0,0E0,0E0,0E0,0E0,0E0,0E0,0E0,0E0],"parents":[2147483647,0,0,1,1,2,2,3,3,4,4,5,5,6,6,7,7,8,8,9,9,10,10,11,11,12,12,13,13,14,14,15,15,16,16,17,17,19,19,20,20,21,21,22,22,23,23,24,24,25,25,26,26,27,27,28,28,29,29,31,31,32,32,33,33,34,34,35,35,36,36,37,37,38,38,39,39,41,41,42,42,43,43,44,44,45,45,46,46,47,47,49,49,50,50,51,51,52,52,53,53,54,54,55,55,56,56,57,57],"right_children":[2,4,6,8,10,12,14,16,18,20,22,24,26,28,30,32,34,36,-1,38,40,42,44,46,48,50,52,54,56,58,-1,60,62,64,66,68,70,72,74,76,-1,78,80,82,84,86,88,90,-1,92,94,96,98,100,102,104,106,108,-1,-1,-1,-1,-1,-1,-1,-1,-1,-1,-1,-1,-1,-1,-1,-1,-1,-1,-1,-1,-1,-1,-1,-1,-1,-1,-1,-1,-1,-1,-1,-1,-1,-1,-1,-1,-1,-1,-1,-1,-1,-1,-1,-1,-1,-1,-1,-1,-1,-1,-1],"split_conditions":[5.3231675E-2,7.800241E-2,1.2448147E-1,4.9820993E-2,4.4872824E-2,5.925303E-2,6.579216E-2,4.397898E-2,3.272007E-1,1.010522E-1,3.970439E-2,4.397898E-2,5.448939E-2,5.562558E-2,7.388666E-2,4.9393658E-2,1.3543193E-1,3.9656483E-2,1.895632E0,4.9393658E-2,1.0457765E-1,2.935939E-2,7.523787E-2,8.21379E-2,9.543854E-2,6.111987E-2,6.390035E-2,5.6875993E-2,1.5253678E-1,3.924595E-2,-9.932089E-2,4.205014E-2,3.6488436E-2,1.8354523E-1,1.455239E-1,4.895388E-2,4.8459522E-2,8.858404E-2,7.398785E-2,1.4175582E-1,5.232558E-1,5.698177E-2,8.768518E-2,7.711719E-2,9.2200436E-2,4.273669E-2,4.1670856E-1,2.1145003E-1,3.1188118E-1,1.1856824E-1,6.618108E-2,2.8181335E-1,2.8100712E-2,1.845589E-1,1.8193309E-1,9.186809E-2,3.6591306E-2,2.9030597E-1,5.6603767E-2,8.9604867E-1,1.5820233E0,1.7015939E0,1.1455444E0,1.8853E0,2.206386E0,1.3126199E0,2.6470587E-1,-3.6363028E-2,1.3269917E0,9.765763E-1,2.903225E-2,4.2194432E-1,1.4370925E0,1.2545131E0,5.045766E-1,1.8342034E0,3.3962265E-1,-1.5857019E-1,4.1860464E-1,7.380409E-1,3.37711E-2,1.2365439E0,2.4448216E-1,3.3962265E-1,-9.287055E-2,1.552275E0,1.1109434E0,5.730437E-1,-8.029481E-2,2.005539E0,1.0182481E0,2.0207467E0,4.8726112E-1,1.3586724E0,-1.2487612E-1,1.5046984E0,5.1469046E-1,5.5429494E-1,4.4554453E-2,2.1715271E0,1.3695651E0,1.5799725E0,3.3110365E-1,1.7355964E0,2.26094E-1,9.8663104E-1,3.088532E-3,1.3930012E0,2.4448216E-1],"split_indices":[150,125,150,481,494,22,323,459,480,459,275,459,98,178,357,22,309,46,0,22,187,297,323,481,200,333,163,225,252,42,0,46,85,153,85,101,129,46,283,326,0,379,160,309,275,85,481,305,0,53,252,98,7,85,93,328,108,72,0,0,0,0,0,0,0,0,0,0,0,0,0,0,0,0,0,0,0,0,0,0,0,0,0,0,0,0,0,0,0,0,0,0,0,0,0,0,0,0,0,0,0,0,0,0,0,0,0,0,0],"split_type":[0,0,0,0,0,0,0,0,0,0,0,0,0,0,0,0,0,0,0,0,0,0,0,0,0,0,0,0,0,0,0,0,0,0,0,0,0,0,0,0,0,0,0,0,0,0,0,0,0,0,0,0,0,0,0,0,0,0,0,0,0,0,0,0,0,0,0,0,0,0,0,0,0,0,0,0,0,0,0,0,0,0,0,0,0,0,0,0,0,0,0,0,0,0,0,0,0,0,0,0,0,0,0,0,0,0,0,0,0],"sum_hessian":[1.165609E4,8.012232E3,3.6438582E3,6.9767295E3,1.0355023E3,1.0520535E3,2.5918047E3,6.347165E3,6.295645E2,2.4291557E2,7.9258673E2,6.0455115E2,4.4750226E2,2.5389158E3,5.2888893E1,5.429636E3,9.17529E2,6.199823E2,9.582223E0,2.1964447E2,2.3271112E1,7.816356E2,1.0951112E1,4.8508447E2,1.19466675E2,4.1390225E2,3.3600002E1,2.431769E3,1.07146675E2,5.1271114E1,1.617778E0,4.1232183E3,1.3064178E3,8.801956E2,3.7333336E1,5.9409784E2,2.5884447E1,1.6688002E2,5.276445E1,2.1404446E1,1.8666668E0,7.754134E2,6.222223E0,8.462223E0,2.4888892E0,4.6641782E2,1.8666668E1,1.1822223E2,1.2444446E0,4.0519113E2,8.711112E0,3.0613337E1,2.986667E0,2.3941868E3,3.7582226E1,1.0017779E2,6.968889E0,5.0151115E1,1.1200001E0,3.5522668E3,5.709512E2,1.0769423E3,2.2947557E2,6.920356E2,1.8816002E2,3.372445E1,3.608889E0,5.9136005E2,2.737778E0,1.6551113E1,9.333334E0,1.5219557E2,1.4684445E1,4.4053337E1,8.711112E0,2.0284447E1,1.1200001E0,7.7354675E2,1.8666668E0,4.853334E0,1.368889E0,6.844445E0,1.617778E0,1.1200001E0,1.368889E0,3.7457782E2,9.1840004E1,1.3937778E1,4.7288895E0,1.1374223E2,4.4800005E0,4.0270227E2,2.4888892E0,5.226667E0,3.4844446E0,2.737778E1,3.235556E0,1.7422223E0,1.2444446E0,2.3711646E3,2.3022224E1,3.459556E1,2.986667E0,9.843556E1,1.7422223E0,1.4933335E0,5.475556E0,4.8533337E1,1.617778E0],"tree_param":{"num_deleted":"0","num_feature":"500","num_nodes":"109","size_leaf_vector":"1"}},{"base_weights":[-4.975799E-1,-5.0373757E-1,-4.0432748E-1,-5.0459397E-1,-4.6439648E-2,-4.2314085E-1,3.9352838E-2,-5.0590575E-1,-2.4874663E-1,-1.9913024E-1,2.7603424E-1,-4.27267E-1,3.3962265E-1,-9.970631E-2,4.4489464E-1,-5.0805175E-1,-3.93256E-1,-3.3975366E-1,8.09698E-1,-3.659625E-1,2.9197076E-1,-4.360527E-1,2.3045635E-1,-2.7704486E-1,9.217046E-1,-5.0823545E-1,1.2988114E-1,-4.3527994E-1,-5.0476745E-2,-3.8910505E-1,5.151915E-1,-9.554141E-2,5.4033774E-1,-1.490833E-1,1.981132E-1,1.7027026E-1,-9.287055E-2,-4.4015577E-1,2.0930232E-1,-1.1811025E-1,4.1369608E-1,-3.4690103E-1,1.7821781E-1,4.2206076E-1,-8.490566E-2,-1.5291545E-1,-1.1371494E-1,-1.3518515E-1,1.9390787E-1,4.4554454E-1,-6.0366943E-2,-1.2768497E-1,1.981132E-1,-8.9108914E-2,3.3962265E-1,5.6603767E-2,-9.287055E-2,-1.3328438E-1,2.0930232E-1,-9.692308E-2,1.7821781E-1,-1.2713361E-1,1.6041276E-1],"categories":[],"categories_nodes":[],"categories_segments":[],"categories_sizes":[],"default_left":[0,0,0,0,0,0,0,0,0,0,0,0,0,0,0,0,0,0,0,0,0,0,0,0,0,0,0,0,0,0,0,0,0,0,0,0,0,0,0,0,0,0,0,0,0,0,0,0,0,0,0,0,0,0,0,0,0,0,0,0,0,0,0],"id":8,"left_children":[1,3,5,7,9,11,13,15,17,19,-1,21,-1,23,-1,25,27,29,31,33,35,37,39,41,43,45,-1,47,49,51,53,55,-1,-1,-1,-1,-1,57,-1,59,-1,61,-1,-1,-1,-1,-1,-1,-1,-1,-1,-1,-1,-1,-1,-1,-1,-1,-1,-1,-1,-1,-1],"loss_changes":[6.48999E0,4.257324E0,6.0861435E0,3.5358887E0,3.3611908E0,4.960449E0,6.269395E0,2.4240723E0,5.825611E0,1.6977782E0,0E0,4.125389E0,0E0,5.4632015E0,0E0,2.0600586E0,2.9645882E0,2.468933E0,4.5318375E0,2.3362844E0,1.084188E0,3.5060425E0,4.1004324E0,1.7436073E0,3.019279E0,1.8461914E0,0E0,3.352909E0,5.802134E0,2.2506208E0,2.0220022E0,2.7064142E-1,0E0,0E0,0E0,0E0,0E0,3.5292664E0,0E0,1.427815E0,0E0,1.8547313E0,0E0,0E0,0E0,0E0,0E0,0E0,0E0,0E0,0E0,0E0,0E0,0E0,0E0,0E0,0E0,0E0,0E0,0E0,0E0,0E0,0E0],"parents":[2147483647,0,0,1,1,2,2,3,3,4,4,5,5,6,6,7,7,8,8,9,9,11,11,13,13,15,15,16,16,17,17,18,18,19,19,20,20,21,21,22,22,23,23,24,24,25,25,27,27,28,28,29,29,30,30,31,31,37,37,39,39,41,41],"right_children":[2,4,6,8,10,12,14,16,18,20,-1,22,-1,24,-1,26,28,30,32,34,36,38,40,42,44,46,-1,48,50,52,54,56,-1,-1,-1,-1,-1,58,-1,60,-1,62,-1,-1,-1,-1,-1,-1,-1,-1,-1,-1,-1,-1,-1,-1,-1,-1,-1,-1,-1,-1,-1],"split_conditions":[2.1650402E-1,2.1378885E-1,1.3628499E-1,2.3664771E-1,9.526541E-2,5.1844305E-1,2.1429946E-1,9.584678E-2,8.666598E-2,1.2213433E-1,2.7603424E-1,2.264154E-1,3.3962265E-1,1.4968573E-1,4.4489464E-1,5.9355086E-1,9.636748E-2,2.0447633E-1,3.0912843E-2,1.5119998E-1,2.8100712E-2,4.8763755E-1,3.9922735E-1,1.7936979E-1,1.0087648E-1,7.9036094E-2,1.2988114E-1,1.7905919E-1,1.4456269E-1,1.6910157E-1,4.1093152E-2,3.3230975E-1,5.4033774E-1,-1.490833E-1,1.981132E-1,1.7027026E-1,-9.287055E-2,5.367182E-1,2.0930232E-1,1.2682953E-1,4.1369608E-1,2.4126218E-1,1.7821781E-1,4.2206076E-1,-8.490566E-2,-1.5291545E-1,-1.1371494E-1,-1.3518515E-1,1.9390787E-1,4.4554454E-1,-6.0366943E-2,-1.2768497E-1,1.981132E-1,-8.9108914E-2,3.3962265E-1,5.6603767E-2,-9.287055E-2,-1.3328438E-1,2.0930232E-1,-9.692308E-2,1.7821781E-1,-1.2713361E-1,1.6041276E-1],"split_indices":[275,381,261,83,10,83,30,204,439,275,0,236,0,319,0,265,332,163,22,167,7,32,275,363,36,236,0,497,204,93,36,83,0,0,0,0,0,305,0,319,0,489,0,0,0,0,0,0,0,0,0,0,0,0,0,0,0,0,0,0,0,0,0],"split_type":[0,0,0,0,0,0,0,0,0,0,0,0,0,0,0,0,0,0,0,0,0,0,0,0,0,0,0,0,0,0,0,0,0,0,0,0,0,0,0,0,0,0,0,0,0,0,0,0,0,0,0,0,0,0,0,0,0,0,0,0,0,0,0],"sum_hessian":[1.165609E4,1.0929956E4,7.261334E2,1.0909423E4,2.0533335E1,6.966401E2,2.9493336E1,1.0852801E4,5.6622227E1,1.841778E1,2.1155558E0,6.955201E2,1.1200001E0,2.7751114E1,1.7422223E0,1.0646472E4,2.063289E2,5.276445E1,3.857778E0,1.3937778E1,4.4800005E0,6.866845E2,8.835556E0,2.4266668E1,3.4844446E0,1.06448545E4,1.617778E0,1.8355557E2,2.2773335E1,5.0400005E1,2.3644447E0,2.4888892E0,1.368889E0,1.2817779E1,1.1200001E0,3.1111114E0,1.368889E0,6.848178E2,1.8666668E0,7.466667E0,1.368889E0,2.3022224E1,1.2444446E0,2.3644447E0,1.1200001E0,1.0521156E4,1.23697784E2,1.8156445E2,1.9911113E0,1.2444446E0,2.152889E1,4.9280003E1,1.1200001E0,1.2444446E0,1.1200001E0,1.1200001E0,1.368889E0,6.829512E2,1.8666668E0,6.222223E0,1.2444446E0,2.1653336E1,1.368889E0],"tree_param":{"num_deleted":"0","num_feature":"500","num_nodes":"63","size_leaf_vector":"1"}},{"base_weights":[5.0558645E-1,3.0380213E-1,3.8383412E0,1.7958406E-1,3.2875524E0,4.2217517E0,1.3314179E0,1.2861586E-1,4.248289E0,2.7718668E0,3.9091687E0,4.325279E0,-3.5053554E-1,7.4670565E-1,3.2199786E0,6.557171E-2,2.3446674E0,4.696219E0,1.7107749E0,3.013565E0,1.0940299E0,4.021269E0,5.880631E-1,4.434582E0,6.426931E-1,-4.1357368E-1,5.6603767E-2,4.5516348E-1,2.7383986E0,4.103439E0,-1.2845674E-1,2.8356028E-1,-3.6668128E-1,2.7794912E0,6.518851E-1,4.135386E0,5.9995694E0,1.2424095E0,1.0460299E0,3.1190152E0,1.0494049E0,1.4437193E0,-1.5298338E-2,3.6382694E0,4.796518E0,1.17752E0,-1.1623617E-1,4.5731945E0,2.6431081E0,2.7716875E-1,1.7156347E0,-1.4668219E-1,5.6603767E-2,8.457711E-1,-2.5033963E-1,3.0895257E0,5.6603767E-2,4.454031E0,2.9420504E-1,1.2738883E-1,-7.267948E-2,-1.1757985E-1,1.4222579E-1,9.328768E-1,3.3604714E-1,2.640074E-1,-1.4570361E-1,1.2716563E0,-1.0210697E-1,1.8381045E0,6.256684E-1,4.833585E-1,-6.0752176E-2,9.6541417E-1,3.2498974E-1,6.425292E-2,7.2034717E-1,4.855987E-1,-1.06983654E-1,-1.0005852E-1,3.3962265E-1,1.1097736E0,6.538969E-2,1.4834824E0,-9.932089E-2,5.732484E-1,-9.625669E-2,1.3171237E0,1.7334543E0,5.953461E-1,1.2154706E0,1.2240727E-2,4.8113206E-1,7.93621E-1,1.0465115E-1,1.5259515E-1,5.831296E-1,-1.21787585E-1,1.5137614E-1,1.0454863E0,1.7821781E-1,1.4141203E0,1.981132E-1],"categories":[],"categories_nodes":[],"categories_segments":[],"categories_sizes":[],"default_left":[0,0,0,0,0,0,0,0,0,0,0,0,0,0,0,0,0,0,0,0,0,0,0,0,0,0,0,0,0,0,0,0,0,0,0,0,0,0,0,0,0,0,0,0,0,0,0,0,0,0,0,0,0,0,0,0,0,0,0,0,0,0,0,0,0,0,0,0,0,0,0,0,0,0,0,0,0,0,0,0,0,0,0,0,0,0,0,0,0,0,0,0,0,0,0,0,0,0,0,0,0,0,0],"id":9,"left_children":[1,3,5,7,9,11,13,15,17,19,21,23,25,27,29,31,33,35,37,39,41,43,45,47,49,51,-1,53,55,57,-1,59,61,63,65,67,69,71,-1,73,75,77,79,81,83,85,-1,87,89,91,93,-1,-1,95,97,99,-1,101,-1,-1,-1,-1,-1,-1,-1,-1,-1,-1,-1,-1,-1,-1,-1,-1,-1,-1,-1,-1,-1,-1,-1,-1,-1,-1,-1,-1,-1,-1,-1,-1,-1,-1,-1,-1,-1,-1,-1,-1,-1,-1,-1,-1,-1],"loss_changes":[7.838199E3,4.0736895E3,6.3395605E2,2.1881655E3,1.299834E2,2.7449316E2,9.668007E1,1.4562909E3,1.4034888E2,9.5466675E1,7.088501E1,2.2416406E2,5.434842E-1,3.9294147E1,6.9153824E1,9.5532196E2,2.1042603E2,5.587793E1,1.32691765E1,4.0700073E1,1.2526913E1,3.9010254E1,4.8238707E0,1.2388281E2,6.358979E0,6.62956E-1,0E0,1.7325542E1,7.2198944E0,1.4166016E1,0E0,5.000268E2,7.234793E1,1.2200842E2,1.6059935E1,3.8673462E1,2.6809082E0,1.0076513E1,0E0,3.7032227E1,1.3400297E1,8.299942E0,3.5598798E0,2.6601562E1,4.7100708E1,6.0874186E0,0E0,8.6268555E1,3.06362E1,4.384394E0,4.459751E0,0E0,0E0,1.3891592E1,2.8954165E0,5.4248657E0,0E0,1.1604187E1,0E0,0E0,0E0,0E0,0E0,0E0,0E0,0E0,0E0,0E0,0E0,0E0,0E0,0E0,0E0,0E0,0E0,0E0,0E0,0E0,0E0,0E0,0E0,0E0,0E0,0E0,0E0,0E0,0E0,0E0,0E0,0E0,0E0,0E0,0E0,0E0,0E0,0E0,0E0,0E0,0E0,0E0,0E0,0E0,0E0],"parents":[2147483647,0,0,1,1,2,2,3,3,4,4,5,5,6,6,7,7,8,8,9,9,10,10,11,11,12,12,13,13,14,14,15,15,16,16,17,17,18,18,19,19,20,20,21,21,22,22,23,23,24,24,25,25,27,27,28,28,29,29,31,31,32,32,33,33,34,34,35,35,36,36,37,37,39,39,40,40,41,41,42,42,43,43,44,44,45,45,47,47,48,48,49,49,50,50,53,53,54,54,55,55,57,57],"right_children":[2,4,6,8,10,12,14,16,18,20,22,24,26,28,30,32,34,36,38,40,42,44,46,48,50,52,-1,54,56,58,-1,60,62,64,66,68,70,72,-1,74,76,78,80,82,84,86,-1,88,90,92,94,-1,-1,96,98,100,-1,102,-1,-1,-1,-1,-1,-1,-1,-1,-1,-1,-1,-1,-1,-1,-1,-1,-1,-1,-1,-1,-1,-1,-1,-1,-1,-1,-1,-1,-1,-1,-1,-1,-1,-1,-1,-1,-1,-1,-1,-1,-1,-1,-1,-1,-1],"split_conditions":[4.8459522E-2,7.548868E-2,5.563423E-2,1.2239489E-1,3.260078E-1,1.9372207E-1,1.081366E-1,5.7300765E-2,3.0912843E-2,3.0912843E-2,1.1063922E-1,1.410192E-1,1.9565909E-1,4.9820993E-2,6.678991E-2,6.1514564E-2,4.26417E-2,1.4192182E-1,1.18766226E-1,4.6042386E-2,4.4447582E-2,7.35843E-2,5.019702E-2,3.05439E-2,7.027959E-2,8.649277E-2,5.6603767E-2,6.270548E-2,1.3540016E-1,7.050666E-2,-1.2845674E-1,4.4345256E-2,1.0838198E-1,9.525312E-2,6.678991E-2,2.2353707E-1,1.5886635E-1,1.13964826E-1,1.0460299E0,4.948085E-2,7.9693004E-2,1.0806889E-1,1.1979527E-1,2.6143497E-1,1.2784475E-1,6.678991E-2,-1.1623617E-1,9.712579E-2,4.409984E-2,7.777839E-2,1.03348605E-1,-1.4668219E-1,5.6603767E-2,6.182566E-2,1.6049203E-1,1.6270651E-1,5.6603767E-2,1.765888E-1,2.9420504E-1,1.2738883E-1,-7.267948E-2,-1.1757985E-1,1.4222579E-1,9.328768E-1,3.3604714E-1,2.640074E-1,-1.4570361E-1,1.2716563E0,-1.0210697E-1,1.8381045E0,6.256684E-1,4.833585E-1,-6.0752176E-2,9.6541417E-1,3.2498974E-1,6.425292E-2,7.2034717E-1,4.855987E-1,-1.06983654E-1,-1.0005852E-1,3.3962265E-1,1.1097736E0,6.538969E-2,1.4834824E0,-9.932089E-2,5.732484E-1,-9.625669E-2,1.3171237E0,1.7334543E0,5.953461E-1,1.2154706E0,1.2240727E-2,4.8113206E-1,7.93621E-1,1.0465115E-1,1.5259515E-1,5.831296E-1,-1.21787585E-1,1.5137614E-1,1.0454863E0,1.7821781E-1,1.4141203E0,1.981132E-1],"split_indices":[129,481,22,344,481,480,154,200,22,22,434,305,6,481,480,150,22,130,283,46,150,296,103,150,7,7,0,150,488,150,0,46,323,305,480,453,407,215,0,246,275,162,309,173,245,480,0,417,154,10,7,0,0,332,319,53,0,71,0,0,0,0,0,0,0,0,0,0,0,0,0,0,0,0,0,0,0,0,0,0,0,0,0,0,0,0,0,0,0,0,0,0,0,0,0,0,0,0,0,0,0,0,0],"split_type":[0,0,0,0,0,0,0,0,0,0,0,0,0,0,0,0,0,0,0,0,0,0,0,0,0,0,0,0,0,0,0,0,0,0,0,0,0,0,0,0,0,0,0,0,0,0,0,0,0,0,0,0,0,0,0,0,0,0,0,0,0,0,0,0,0,0,0,0,0,0,0,0,0,0,0,0,0,0,0,0,0,0,0,0,0,0,0,0,0,0,0,0,0,0,0,0,0,0,0,0,0,0,0],"sum_hessian":[1.165609E4,1.0991681E4,6.6440894E2,1.0553388E4,4.3829337E2,5.7568005E2,8.87289E1,1.0423841E4,1.2954668E2,2.4254224E2,1.9575113E2,5.629867E2,1.2693335E1,6.881779E1,1.9911114E1,1.0136499E4,2.8734225E2,1.0938667E2,2.0160002E1,2.1130669E2,3.1235558E1,1.8915558E2,6.5955563E0,5.4656006E2,1.6426668E1,1.1573335E1,1.1200001E0,6.1102226E1,7.715556E0,1.592889E1,3.9822226E0,6.738543E3,3.3979558E3,2.2810669E2,5.923556E1,7.939556E1,2.9991114E1,1.729778E1,2.8622224E0,1.9998224E2,1.1324446E1,2.3520002E1,7.715556E0,1.3041779E2,5.873778E1,3.9822226E0,2.6133335E0,5.058667E2,4.0693336E1,1.31911125E1,3.235556E0,1.0453334E1,1.1200001E0,3.9200005E1,2.1902224E1,6.5955563E0,1.1200001E0,1.3937778E1,1.9911113E0,5.3132803E3,1.4252623E3,3.2993958E3,9.8560005E1,1.895289E2,3.857778E1,4.9528893E1,9.706668E0,7.765334E1,1.7422223E0,2.849778E1,1.4933335E0,1.368889E1,3.608889E0,1.9015112E2,9.831112E0,7.715556E0,3.608889E0,2.152889E1,1.9911113E0,6.5955563E0,1.1200001E0,1.2805334E2,2.3644447E0,5.7120007E1,1.617778E0,2.4888892E0,1.4933335E0,4.4327115E2,6.2595562E1,2.936889E1,1.1324446E1,1.2071112E1,1.1200001E0,1.368889E0,1.8666668E0,3.1111115E1,8.088889E0,1.8542223E1,3.3600004E0,5.3511114E0,1.2444446E0,1.2817779E1,1.1200001E0],"tree_param":{"num_deleted":"0","num_feature":"500","num_nodes":"103","size_leaf_vector":"1"}},{"base_weights":[-5.3086436E-1,-5.315499E-1,6.296296E-1,-5.325669E-1,-2.720389E-1,-5.327381E-1,-6.224068E-2,-3.5184297E-1,4.8113206E-1,-5.32824E-1,5.6603767E-2,3.6248557E-2,-9.625669E-2,-4.125037E-1,2.6470587E-1,-5.3290975E-1,1.5280132E-2,-4.5500657E-1,1.981132E-1,-1.5989867E-1,7.29335E-3,-1.4979458E-1,1.2988114E-1],"categories":[],"categories_nodes":[],"categories_segments":[],"categories_sizes":[],"default_left":[0,0,0,0,0,0,0,0,0,0,0,0,0,0,0,0,0,0,0,0,0,0,0],"id":10,"left_children":[1,3,-1,5,7,9,11,13,-1,15,-1,-1,-1,17,-1,19,-1,21,-1,-1,-1,-1,-1],"loss_changes":[2.212793E1,2.9311523E0,0E0,9.016113E-1,7.681229E0,8.1933594E-1,2.9232424E-1,3.839476E0,0E0,6.0839844E-1,0E0,0E0,0E0,2.3492575E0,0E0,5.6811523E-1,0E0,1.9397726E0,0E0,0E0,0E0,0E0,0E0],"parents":[2147483647,0,0,1,1,3,3,4,4,5,5,6,6,7,7,9,9,13,13,15,15,17,17],"right_children":[2,4,-1,6,8,10,12,14,-1,16,-1,-1,-1,18,-1,20,-1,22,-1,-1,-1,-1,-1],"split_conditions":[6.3166535E-1,2.8351334E-1,6.296296E-1,5.5098534E-1,5.229318E-2,6.7407495E-1,4.142434E-2,2.3031543E-1,4.8113206E-1,3.645122E-1,5.6603767E-2,3.6248557E-2,-9.625669E-2,1.8410702E-1,2.6470587E-1,5.9211797E-1,1.5280132E-2,2.039754E-1,1.981132E-1,-1.5989867E-1,7.29335E-3,-1.4979458E-1,1.2988114E-1],"split_indices":[138,138,0,95,201,201,170,95,0,457,0,0,0,98,0,318,0,303,0,0,0,0,0],"split_type":[0,0,0,0,0,0,0,0,0,0,0,0,0,0,0,0,0,0,0,0,0,0,0],"sum_hessian":[1.165609E4,1.165385E4,2.2400002E0,1.1607308E4,4.6542225E1,1.1602952E4,4.355556E0,4.5422226E1,1.1200001E0,1.1601832E4,1.1200001E0,2.8622224E0,1.4933335E0,4.3928894E1,1.4933335E0,1.1600214E4,1.617778E0,4.280889E1,1.1200001E0,1.1598472E4,1.7422223E0,4.1191116E1,1.617778E0],"tree_param":{"num_deleted":"0","num_feature":"500","num_nodes":"23","size_leaf_vector":"1"}},{"base_weights":[-2.9358387E-1,-5.1299965E-1,2.242973E0,-5.167324E-1,-2.15311E-1,-5.1760316E-1,1.7551751E-1,-2.4822696E-1,6.226415E-1,-5.1992404E-1,-3.8338107E-1,-2.0447907E-1,7.641509E-1,-2.780016E-1,8.1081074E-1,-5.205364E-1,-1.3478366E-1,-4.1850626E-1,7.028863E-1,-3.9711192E-1,4.428044E-1,-2.9717487E-1,2.6470587E-1,3.9450222E-1,-8.490566E-2,-1.5679345E-1,-1.2457376E-1,-1.3408683E-1,6.256684E-1,-1.3417505E-1,1.4800559E-1,-1.4457831E-1,5.6603767E-2,2.870544E-1,-8.9108914E-2,-9.809306E-2,1.4233576E-1],"categories":[],"categories_nodes":[],"categories_segments":[],"categories_sizes":[],"default_left":[0,0,0,0,0,0,0,0,0,0,0,0,0,0,0,0,0,0,0,0,0,0,0,0,0,0,0,0,0,0,0,0,0,0,0,0,0],"id":11,"left_children":[1,3,-1,5,7,9,11,13,-1,15,17,19,-1,21,23,25,27,29,-1,31,33,35,-1,-1,-1,-1,-1,-1,-1,-1,-1,-1,-1,-1,-1,-1,-1],"loss_changes":[1.987796E4,1.2487549E1,0E0,6.840088E0,1.1231501E1,3.2844238E0,1.3870912E1,4.671488E0,0E0,2.5217285E0,1.9547924E1,1.8832381E0,0E0,3.329936E0,2.639471E0,2.2189941E0,1.39599285E1,5.260151E0,0E0,6.414323E-1,1.6583881E0,3.2916899E0,0E0,0E0,0E0,0E0,0E0,0E0,0E0,0E0,0E0,0E0,0E0,0E0,0E0,0E0,0E0],"parents":[2147483647,0,0,1,1,3,3,4,4,5,5,6,6,7,7,9,9,10,10,11,11,13,13,14,14,15,15,16,16,17,17,19,19,20,20,21,21],"right_children":[2,4,-1,6,8,10,12,14,-1,16,18,20,-1,22,24,26,28,30,-1,32,34,36,-1,-1,-1,-1,-1,-1,-1,-1,-1,-1,-1,-1,-1,-1,-1],"split_conditions":[6.253293E-2,2.550884E-1,2.242973E0,2.2773492E-1,3.8234434E-1,1.16005205E-1,1.4198057E-1,2.2717755E-1,6.226415E-1,5.081284E-1,3.0328372E-1,1.0871738E-1,7.641509E-1,4.6385303E-1,3.6488436E-2,1.1002418E-1,6.480866E-2,1.8148401E-1,7.028863E-1,1.070069E-1,1.3429031E-1,3.3486298E-1,2.6470587E-1,3.9450222E-1,-8.490566E-2,-1.5679345E-1,-1.2457376E-1,-1.3408683E-1,6.256684E-1,-1.3417505E-1,1.4800559E-1,-1.4457831E-1,5.6603767E-2,2.870544E-1,-8.9108914E-2,-9.809306E-2,1.4233576E-1],"split_indices":[8,4,0,492,161,173,240,190,0,333,496,332,0,61,85,161,439,7,0,173,435,325,0,0,0,0,0,0,0,0,0,0,0,0,0,0,0],"split_type":[0,0,0,0,0,0,0,0,0,0,0,0,0,0,0,0,0,0,0,0,0,0,0,0,0,0,0,0,0,0,0,0,0,0,0,0,0],"sum_hessian":[1.165609E4,1.133689E4,3.192E2,1.119577E4,1.4112001E2,1.1181956E4,1.3813334E1,1.4000002E2,1.1200001E0,1.0989067E4,1.928889E2,1.2693335E1,1.1200001E0,1.368889E2,3.1111114E0,1.0971272E4,1.7795557E1,1.9127113E2,1.617778E0,1.0080001E1,2.6133335E0,1.3539557E2,1.4933335E0,1.9911113E0,1.1200001E0,1.0752001E4,2.1927113E2,1.6302223E1,1.4933335E0,1.8592001E2,5.3511114E0,8.960001E0,1.1200001E0,1.368889E0,1.2444446E0,1.3091557E2,4.4800005E0],"tree_param":{"num_deleted":"0","num_feature":"500","num_nodes":"37","size_leaf_vector":"1"}},{"base_weights":[-5.3558254E-1,-1.607005E-1,-2.3498695E-1,-1.20401345E-1,5.6603767E-2],"categories":[],"categories_nodes":[],"categories_segments":[],"categories_sizes":[],"default_left":[0,0,0,0,0],"id":12,"left_children":[1,-1,3,-1,-1],"loss_changes":[1.743164E-1,0E0,4.356278E-1,0E0,0E0],"parents":[2147483647,0,0,2,2],"right_children":[2,-1,4,-1,-1],"split_conditions":[5.7858074E-1,-1.607005E-1,9.0277165E-2,-1.20401345E-1,5.6603767E-2],"split_indices":[323,0,283,0,0],"split_type":[0,0,0,0,0],"sum_hessian":[1.165609E4,1.1651983E4,4.106667E0,2.986667E0,1.1200001E0],"tree_param":{"num_deleted":"0","num_feature":"500","num_nodes":"5","size_leaf_vector":"1"}},{"base_weights":[-4.0253046E-1,-4.4291794E-1,3.4796548E-1,-4.501966E-1,3.5801423E-1,2.9163048E-1,9.7543144E-1,-4.6123126E-1,-1.0089023E-1,2.7230322E-1,7.073578E-1,2.7489245E-1,2.2596629E0,1.5148782E0,4.0504524E-1,-4.6328357E-1,8.1484306E-1,5.286311E-2,-3.1760895E-1,3.828559E-1,-1.480574E-1,2.101393E-1,7.386934E-1,8.678996E-1,5.6603767E-2,1.976744E0,-9.914097E-3,1.7471832E-1,6.636953E-1,-4.7138685E-1,-1.4585043E-1,4.317741E-1,9.2026263E-1,1.588172E-1,-4.130095E-1,-3.374508E-1,3.3962265E-1,2.9575112E-1,1.4001372E0,1.9018097E-1,1.8269975E0,5.4011995E-1,2.259528E0,2.3495536E0,2.5272545E-1,-2.6169708E-1,1.981132E-1,-3.5545024E-1,8.8811487E-1,-1.4239573E-1,4.9216997E-2,-5.331259E-2,2.6688632E-1,3.4039326E-2,6.669794E-1,3.852547E-2,5.882852E-1,-1.472536E-1,1.2306777E-1,-1.1155264E-1,7.086613E-2,5.4589335E-2,3.4515193E-1,6.134492E-1,-9.932089E-2,5.2652396E-2,5.79977E-1,7.7064216E-1,-9.287055E-2,3.6813393E-2,3.1614348E-1,8.314829E-1,1.16693676E-1,7.807704E-1,-8.9108914E-2,1.6666666E-1,-8.9108914E-2,-1.2487612E-1,5.6603767E-2,-1.4754099E-1,1.0465115E-1,4.3284938E-1,-1.19102426E-1],"categories":[],"categories_nodes":[],"categories_segments":[],"categories_sizes":[],"default_left":[0,0,0,0,0,0,0,0,0,0,0,0,0,0,0,0,0,0,0,0,0,0,0,0,0,0,0,0,0,0,0,0,0,0,0,0,0,0,0,0,0,0,0,0,0,0,0,0,0,0,0,0,0,0,0,0,0,0,0,0,0,0,0,0,0,0,0,0,0,0,0,0,0,0,0,0,0,0,0,0,0,0,0],"id":13,"left_children":[1,3,5,7,9,11,13,15,17,19,-1,21,23,25,27,29,31,33,35,37,-1,39,41,-1,-1,43,45,47,-1,49,51,53,-1,55,57,59,-1,61,63,65,67,69,71,73,75,77,-1,79,81,-1,-1,-1,-1,-1,-1,-1,-1,-1,-1,-1,-1,-1,-1,-1,-1,-1,-1,-1,-1,-1,-1,-1,-1,-1,-1,-1,-1,-1,-1,-1,-1,-1,-1],"loss_changes":[3.534879E2,6.4650635E1,2.0777626E1,4.221045E1,1.6530058E1,1.743649E1,1.4359425E1,2.8208984E1,1.1246045E1,8.417945E0,0E0,1.6203453E1,5.336073E0,1.7375439E1,1.0027456E1,2.7224365E1,1.3713665E1,9.838874E0,4.4091635E0,7.161871E0,0E0,1.5121542E1,1.8812069E1,0E0,0E0,1.1566681E1,1.3076897E0,9.118972E0,0E0,2.154663E1,8.918747E0,8.904666E0,0E0,8.624733E0,2.5699358E0,2.8279324E0,0E0,7.5735936E0,7.904334E0,1.1800041E1,9.875084E0,1.2732986E1,5.9590797E0,1.1109055E1,9.115976E-1,4.686563E-1,0E0,1.5224055E0,7.8505135E0,0E0,0E0,0E0,0E0,0E0,0E0,0E0,0E0,0E0,0E0,0E0,0E0,0E0,0E0,0E0,0E0,0E0,0E0,0E0,0E0,0E0,0E0,0E0,0E0,0E0,0E0,0E0,0E0,0E0,0E0,0E0,0E0,0E0,0E0],"parents":[2147483647,0,0,1,1,2,2,3,3,4,4,5,5,6,6,7,7,8,8,9,9,11,11,12,12,13,13,14,14,15,15,16,16,17,17,18,18,19,19,21,21,22,22,25,25,26,26,27,27,29,29,30,30,31,31,33,33,34,34,35,35,37,37,38,38,39,39,40,40,41,41,42,42,43,43,44,44,45,45,47,47,48,48],"right_children":[2,4,6,8,10,12,14,16,18,20,-1,22,24,26,28,30,32,34,36,38,-1,40,42,-1,-1,44,46,48,-1,50,52,54,-1,56,58,60,-1,62,64,66,68,70,72,74,76,78,-1,80,82,-1,-1,-1,-1,-1,-1,-1,-1,-1,-1,-1,-1,-1,-1,-1,-1,-1,-1,-1,-1,-1,-1,-1,-1,-1,-1,-1,-1,-1,-1,-1,-1,-1,-1],"split_conditions":[1.54334E-1,1.6553308E-1,6.270385E-2,9.200043E-2,1.0023313E-1,1.7358142E-1,5.643014E-2,1.6234541E-1,3.6488436E-2,7.273753E-2,7.073578E-1,2.0053028E-1,4.400415E-2,1.0464437E-1,2.2206442E-1,1.4778437E-1,1.6409494E-1,6.887869E-2,2.6159453E-1,1.5722081E-1,-1.480574E-1,2.7152246E-1,2.5082648E-1,8.678996E-1,5.6603767E-2,1.1005075E-1,1.3147931E-1,1.1834599E-1,6.636953E-1,8.5862555E-2,1.0335538E-1,1.15177065E-1,9.2026263E-1,1.3626301E-1,1.5182017E-1,1.8798007E-1,3.3962265E-1,1.1030829E-1,9.937143E-2,2.3237352E-1,5.1164836E-2,6.038058E-2,4.4909477E-2,1.5208822E-1,4.1093152E-2,1.3004526E-1,1.981132E-1,1.7349146E-1,1.7979927E-1,-1.4239573E-1,4.9216997E-2,-5.331259E-2,2.6688632E-1,3.4039326E-2,6.669794E-1,3.852547E-2,5.882852E-1,-1.472536E-1,1.2306777E-1,-1.1155264E-1,7.086613E-2,5.4589335E-2,3.4515193E-1,6.134492E-1,-9.932089E-2,5.2652396E-2,5.79977E-1,7.7064216E-1,-9.287055E-2,3.6813393E-2,3.1614348E-1,8.314829E-1,1.16693676E-1,7.807704E-1,-8.9108914E-2,1.6666666E-1,-8.9108914E-2,-1.2487612E-1,5.6603767E-2,-1.4754099E-1,1.0465115E-1,4.3284938E-1,-1.19102426E-1],"split_indices":[481,161,115,4,190,28,275,492,85,22,0,471,275,401,401,328,435,275,416,483,0,168,53,0,0,488,71,36,0,296,86,30,0,64,53,42,0,10,10,9,407,275,360,449,36,36,0,103,61,0,0,0,0,0,0,0,0,0,0,0,0,0,0,0,0,0,0,0,0,0,0,0,0,0,0,0,0,0,0,0,0,0,0],"split_type":[0,0,0,0,0,0,0,0,0,0,0,0,0,0,0,0,0,0,0,0,0,0,0,0,0,0,0,0,0,0,0,0,0,0,0,0,0,0,0,0,0,0,0,0,0,0,0,0,0,0,0,0,0,0,0,0,0,0,0,0,0,0,0,0,0,0,0,0,0,0,0,0,0,0,0,0,0,0,0,0,0,0,0],"sum_hessian":[1.165609E4,1.1061245E4,5.948445E2,1.0962063E4,9.918223E1,5.4718225E2,4.7662228E1,1.0626063E4,3.3600003E2,9.6195564E1,2.986667E0,5.436978E2,3.4844446E0,2.3644447E1,2.401778E1,1.0609637E4,1.6426668E1,1.9699557E2,1.3900446E2,8.449779E1,1.1697779E1,4.7836447E2,6.5333336E1,2.3644447E0,1.1200001E0,1.7920002E1,5.724445E0,2.2275557E1,1.7422223E0,1.0345067E4,2.645689E2,1.5057779E1,1.368889E0,1.6103113E2,3.5964447E1,1.3788446E2,1.1200001E0,7.902223E1,5.475556E0,4.736356E2,4.7288895E0,5.898667E1,6.3466673E0,1.4435556E1,3.4844446E0,4.604445E0,1.1200001E0,1.3066668E1,9.20889E0,1.0292428E4,5.2640003E1,2.574756E2,7.0933337E0,1.368889E1,1.368889E0,1.5941335E2,1.617778E0,3.322667E1,2.737778E0,1.3041779E2,7.466667E0,7.080889E1,8.213334E0,3.857778E0,1.617778E0,4.7077338E2,2.8622224E0,3.3600004E0,1.368889E0,3.322667E1,2.5760002E1,4.604445E0,1.7422223E0,1.31911125E1,1.2444446E0,2.2400002E0,1.2444446E0,3.4844446E0,1.1200001E0,1.1200001E1,1.8666668E0,6.3466673E0,2.8622224E0],"tree_param":{"num_deleted":"0","num_feature":"500","num_nodes":"83","size_leaf_vector":"1"}},{"base_weights":[-3.7799603E-1,-4.2390895E-1,3.5484657E-1,-4.3926802E-1,6.049284E-1,3.225379E-1,1.6067239E0,-4.563595E-1,3.454944E-1,8.161401E-1,-3.5710443E-2,3.5554627E-1,-3.5991532E-1,2.0130696E0,-1.6216217E-1,-4.6397963E-1,3.162824E-1,2.9137343E-1,7.8759557E-1,5.938482E-1,1.9479189E0,-1.5774877E-1,1.2730626E0,3.2914183E-1,1.2303979E0,-1.5432209E-1,2.177858E-1,2.238486E0,2.4064168E-2,-1.06983654E-1,5.6603767E-2,-4.6843445E-1,2.5304398E-1,6.7385346E-1,-3.1304348E-1,2.4127792E-1,1.8355639E0,4.467578E-1,2.0897372E0,2.3313203E0,-1.1623617E-1,-2.696838E-1,9.963099E-1,2.4064168E-2,6.226415E-1,2.73926E-1,7.247991E-1,1.5073422E0,-1.5050168E-1,-2.8404954E-1,4.4554454E-1,1.0965824E0,1.6192094E0,-1.4313437E-1,-4.1261777E-2,3.6598884E-2,4.432548E-1,1.72182E-1,7.5748926E-1,-1.2022219E-1,7.6803714E-2,5.1272083E-2,3.4284508E-1,7.3024637E-1,7.29335E-3,9.523324E-2,5.022624E-1,7.5388604E-1,-8.9108914E-2,7.5578403E-1,3.37711E-2,-1.12016164E-1,3.3549434E-1,4.4554454E-1,3.37711E-2,5.679803E-2,1.7619392E-1,1.4215882E-1,3.9757192E-1,6.4914423E-1,1.4700544E-1,-1.0465116E-1,5.6603767E-2,-1.2845674E-1,5.6603767E-2,-9.932089E-2,6.040724E-1],"categories":[],"categories_nodes":[],"categories_segments":[],"categories_sizes":[],"default_left":[0,0,0,0,0,0,0,0,0,0,0,0,0,0,0,0,0,0,0,0,0,0,0,0,0,0,0,0,0,0,0,0,0,0,0,0,0,0,0,0,0,0,0,0,0,0,0,0,0,0,0,0,0,0,0,0,0,0,0,0,0,0,0,0,0,0,0,0,0,0,0,0,0,0,0,0,0,0,0,0,0,0,0,0,0,0,0],"id":14,"left_children":[1,3,5,7,9,11,13,15,17,19,21,23,25,27,29,31,33,35,-1,37,39,41,43,45,47,-1,49,51,-1,-1,-1,53,55,57,59,61,63,65,67,69,-1,71,73,-1,-1,75,77,79,81,83,-1,-1,85,-1,-1,-1,-1,-1,-1,-1,-1,-1,-1,-1,-1,-1,-1,-1,-1,-1,-1,-1,-1,-1,-1,-1,-1,-1,-1,-1,-1,-1,-1,-1,-1,-1,-1],"loss_changes":[3.9237585E2,1.7361792E2,2.7301224E1,1.4514307E2,2.1919971E1,1.5260368E1,1.258403E1,6.2435303E1,2.7733995E1,2.9463959E1,6.760722E0,1.4408272E1,2.9224138E0,5.895031E0,3.4774992E-1,3.3582764E1,2.3594934E1,1.7097218E1,0E0,2.1766735E1,1.84011E1,5.2366505E0,3.2920299E0,1.34303055E1,7.272114E0,0E0,5.0943894E0,5.003807E0,0E0,0E0,0E0,2.984082E1,1.0304127E1,1.08652725E1,2.015604E0,1.3810746E1,7.501301E0,1.4579966E1,9.801571E0,6.776352E0,0E0,5.577017E0,1.3937974E0,0E0,0E0,1.4445477E1,1.0791641E1,9.248245E0,3.3400786E-1,4.965893E-1,0E0,0E0,8.709942E0,0E0,0E0,0E0,0E0,0E0,0E0,0E0,0E0,0E0,0E0,0E0,0E0,0E0,0E0,0E0,0E0,0E0,0E0,0E0,0E0,0E0,0E0,0E0,0E0,0E0,0E0,0E0,0E0,0E0,0E0,0E0,0E0,0E0,0E0],"parents":[2147483647,0,0,1,1,2,2,3,3,4,4,5,5,6,6,7,7,8,8,9,9,10,10,11,11,12,12,13,13,14,14,15,15,16,16,17,17,19,19,20,20,21,21,22,22,23,23,24,24,26,26,27,27,31,31,32,32,33,33,34,34,35,35,36,36,37,37,38,38,39,39,41,41,42,42,45,45,46,46,47,47,48,48,49,49,52,52],"right_children":[2,4,6,8,10,12,14,16,18,20,22,24,26,28,30,32,34,36,-1,38,40,42,44,46,48,-1,50,52,-1,-1,-1,54,56,58,60,62,64,66,68,70,-1,72,74,-1,-1,76,78,80,82,84,-1,-1,86,-1,-1,-1,-1,-1,-1,-1,-1,-1,-1,-1,-1,-1,-1,-1,-1,-1,-1,-1,-1,-1,-1,-1,-1,-1,-1,-1,-1,-1,-1,-1,-1,-1,-1],"split_conditions":[6.0464192E-2,1.4425933E-1,2.2256298E-1,1.84374E-1,9.247665E-2,4.8016284E-2,3.7688836E-1,1.4740083E-1,2.2355913E-1,4.1296753E-1,2.3101082E-1,1.641377E-1,5.562558E-2,6.2237184E-2,1.06990755E-1,1.6659099E-1,1.1246509E-1,2.6316375E-1,7.8759557E-1,1.618131E-1,3.581139E-2,1.5086816E-1,6.507365E-2,1.5247715E-1,1.4665829E-1,-1.5432209E-1,4.7974832E-2,1.7372431E-1,2.4064168E-2,-1.06983654E-1,5.6603767E-2,1.00107126E-1,8.7828845E-2,2.7298495E-1,6.80112E-2,2.095187E-1,1.14086054E-1,5.629222E-2,3.6591306E-2,7.916716E-2,-1.1623617E-1,1.15005516E-1,2.113435E-1,2.4064168E-2,6.226415E-1,1.2276258E-1,7.272115E-2,4.2497233E-1,4.8459522E-2,1.05061606E-1,4.4554454E-1,1.0965824E0,1.9433904E-1,-1.4313437E-1,-4.1261777E-2,3.6598884E-2,4.432548E-1,1.72182E-1,7.5748926E-1,-1.2022219E-1,7.6803714E-2,5.1272083E-2,3.4284508E-1,7.3024637E-1,7.29335E-3,9.523324E-2,5.022624E-1,7.5388604E-1,-8.9108914E-2,7.5578403E-1,3.37711E-2,-1.12016164E-1,3.3549434E-1,4.4554454E-1,3.37711E-2,5.679803E-2,1.7619392E-1,1.4215882E-1,3.9757192E-1,6.4914423E-1,1.4700544E-1,-1.0465116E-1,5.6603767E-2,-1.2845674E-1,5.6603767E-2,-9.932089E-2,6.040724E-1],"split_indices":[481,329,329,328,344,46,481,53,103,329,339,316,178,254,61,161,246,53,0,191,488,228,7,416,401,0,71,481,0,0,0,4,168,467,10,339,36,296,108,261,0,296,228,0,0,297,332,481,129,53,0,0,481,0,0,0,0,0,0,0,0,0,0,0,0,0,0,0,0,0,0,0,0,0,0,0,0,0,0,0,0,0,0,0,0,0,0],"split_type":[0,0,0,0,0,0,0,0,0,0,0,0,0,0,0,0,0,0,0,0,0,0,0,0,0,0,0,0,0,0,0,0,0,0,0,0,0,0,0,0,0,0,0,0,0,0,0,0,0,0,0,0,0,0,0,0,0,0,0,0,0,0,0,0,0,0,0,0,0,0,0,0,0,0,0,0,0,0,0,0,0,0,0,0,0,0,0],"sum_hessian":[1.165609E4,1.0969281E4,6.8680896E2,1.0808499E4,1.6078224E2,6.707556E2,1.6053335E1,1.0578525E4,2.2997336E2,1.2071112E2,4.0071114E1,6.402667E2,3.0488892E1,1.2942224E1,3.1111114E0,1.0475609E4,1.02915565E2,2.2574225E2,4.2311115E0,1.021689E2,1.8542223E1,3.7457783E1,2.6133335E0,6.228445E2,1.7422224E1,2.4142223E1,6.3466673E0,1.144889E1,1.4933335E0,1.9911113E0,1.1200001E0,1.0411272E4,6.433778E1,6.558223E1,3.7333336E1,2.197689E2,5.973334E0,9.420445E1,7.964445E0,1.592889E1,2.6133335E0,3.4844448E1,2.6133335E0,1.4933335E0,1.1200001E0,5.480534E2,7.4791115E1,1.4435556E1,2.986667E0,5.1022224E0,1.2444446E0,1.9911113E0,9.457779E0,1.0144712E4,2.6656003E2,5.9111115E1,5.226667E0,6.346667E1,2.1155558E0,3.2604446E1,4.7288895E0,2.0496002E2,1.480889E1,4.2311115E0,1.7422223E0,8.636445E1,7.8400006E0,6.7200007E0,1.2444446E0,1.4560001E1,1.368889E0,3.3102226E1,1.7422223E0,1.2444446E0,1.368889E0,4.328178E2,1.15235565E2,5.4008892E1,2.0782225E1,8.088889E0,6.3466673E0,1.8666668E0,1.1200001E0,3.9822226E0,1.1200001E0,1.617778E0,7.8400006E0],"tree_param":{"num_deleted":"0","num_feature":"500","num_nodes":"87","size_leaf_vector":"1"}},{"base_weights":[4.1215843E-1,5.1704764E-1,-2.0061587E-1,4.446472E-1,9.643609E-1,-4.6557304E-3,-5.039848E-1,4.7782233E-1,-1.5586525E-1,8.6224335E-1,1.4826573E0,3.3764455E-1,-1.8778792E-1,-5.130548E-1,7.165457E-1,4.157255E-1,1.1298391E0,9.0120333E-1,5.250566E-2,1.195504E0,2.032044E0,4.9320695E-1,-4.947329E-1,-2.2379707E-1,1.4738895E0,-5.145681E-1,7.041204E-2,3.719974E-1,1.0152521E0,1.0822272E0,2.139114E0,8.2258654E-1,1.2785963E0,-2.7980065E-2,5.386298E-1,1.1135421E0,3.052625E0,1.8295311E0,1.3280051E0,6.212438E-1,-1.5337081E-1,-1.536937E-1,6.867335E-2,-2.4889521E-1,1.4001346E0,1.9462787E0,-1.6109923E-1,-5.1608247E-1,6.365993E-2,1.2004932E-1,-1.4274068E-1,2.7941024E-1,8.010604E-1,3.5979232E-1,2.096117E-1,7.3724943E-1,8.127038E-2,2.3005536E-1,4.16565E-1,3.5151324E-1,9.9401873E-1,-3.6862124E-2,3.8921148E-1,3.552041E-1,-1.3783947E-1,1.1065221E0,5.8461E-2,5.7744867E-1,-1.20126344E-1,2.2226311E-1,5.0815986E-3,-9.1249235E-2,9.2053145E-2,5.714924E-1,-1.06611274E-1,7.8086245E-1,8.795558E-2,-1.08585626E-1,6.832623E-2,-1.5527572E-1,-7.977649E-2],"categories":[],"categories_nodes":[],"categories_segments":[],"categories_sizes":[],"default_left":[0,0,0,0,0,0,0,0,0,0,0,0,0,0,0,0,0,0,0,0,0,0,0,0,0,0,0,0,0,0,0,0,0,0,0,0,0,0,0,0,0,0,0,0,0,0,0,0,0,0,0,0,0,0,0,0,0,0,0,0,0,0,0,0,0,0,0,0,0,0,0,0,0,0,0,0,0,0,0,0,0],"id":15,"left_children":[1,3,5,7,9,11,13,15,-1,17,19,21,23,25,-1,27,29,31,33,35,37,39,41,43,45,47,-1,49,51,53,55,57,59,61,-1,63,65,67,-1,69,-1,-1,-1,71,73,75,77,79,-1,-1,-1,-1,-1,-1,-1,-1,-1,-1,-1,-1,-1,-1,-1,-1,-1,-1,-1,-1,-1,-1,-1,-1,-1,-1,-1,-1,-1,-1,-1,-1,-1],"loss_changes":[7.3490564E2,3.157146E2,9.937214E1,2.6906323E2,7.06521E1,6.3790424E1,1.8435669E1,3.284873E2,0E0,3.584546E1,3.264093E1,4.6170395E1,3.999626E1,8.617096E-1,0E0,1.9414233E2,3.1606812E1,3.1153015E1,7.5258884E0,1.9192886E1,2.8213776E1,3.8813484E1,8.340893E-1,2.6829979E1,1.1275448E1,8.290405E-1,0E0,1.6536877E2,6.745563E1,2.9522766E1,1.7640732E1,2.7360413E1,3.642517E1,6.689644E0,0E0,1.6476242E1,9.636505E0,1.5804794E1,0E0,1.921373E1,0E0,0E0,0E0,1.9772182E1,9.57473E0,1.1271816E1,4.0304846E-1,1.0783386E-1,0E0,0E0,0E0,0E0,0E0,0E0,0E0,0E0,0E0,0E0,0E0,0E0,0E0,0E0,0E0,0E0,0E0,0E0,0E0,0E0,0E0,0E0,0E0,0E0,0E0,0E0,0E0,0E0,0E0,0E0,0E0,0E0,0E0],"parents":[2147483647,0,0,1,1,2,2,3,3,4,4,5,5,6,6,7,7,9,9,10,10,11,11,12,12,13,13,15,15,16,16,17,17,18,18,19,19,20,20,21,21,22,22,23,23,24,24,25,25,27,27,28,28,29,29,30,30,31,31,32,32,33,33,35,35,36,36,37,37,39,39,43,43,44,44,45,45,46,46,47,47],"right_children":[2,4,6,8,10,12,14,16,-1,18,20,22,24,26,-1,28,30,32,34,36,38,40,42,44,46,48,-1,50,52,54,56,58,60,62,-1,64,66,68,-1,70,-1,-1,-1,72,74,76,78,80,-1,-1,-1,-1,-1,-1,-1,-1,-1,-1,-1,-1,-1,-1,-1,-1,-1,-1,-1,-1,-1,-1,-1,-1,-1,-1,-1,-1,-1,-1,-1,-1,-1],"split_conditions":[1.3349181E-1,8.868573E-2,2.628467E-1,1.0442365E-1,6.949316E-2,1.8842316E-1,4.2280027E-1,4.189031E-2,-1.5586525E-1,7.823632E-2,5.989891E-2,2.9437208E-1,1.7388102E-1,2.2211255E-1,7.165457E-1,7.711719E-2,1.2891302E-1,6.78227E-2,1.6645223E-1,2.0832033E-1,3.5318032E-1,4.1497342E-2,1.7142163E-1,1.3921686E-1,1.4994271E-1,1.5377179E-1,7.041204E-2,9.3422785E-2,1.0828017E-1,5.366236E-2,8.301211E-2,1.577309E-1,1.6076572E-1,1.5640125E-1,5.386298E-1,4.0788192E-2,8.188136E-2,1.2531878E-1,1.3280051E0,1.05068855E-1,-1.5337081E-1,-1.536937E-1,6.867335E-2,2.676308E-1,4.9393658E-2,3.970439E-2,3.5191283E-1,2.7943072E-1,6.365993E-2,1.2004932E-1,-1.4274068E-1,2.7941024E-1,8.010604E-1,3.5979232E-1,2.096117E-1,7.3724943E-1,8.127038E-2,2.3005536E-1,4.16565E-1,3.5151324E-1,9.9401873E-1,-3.6862124E-2,3.8921148E-1,3.552041E-1,-1.3783947E-1,1.1065221E0,5.8461E-2,5.7744867E-1,-1.20126344E-1,2.2226311E-1,5.0815986E-3,-9.1249235E-2,9.2053145E-2,5.714924E-1,-1.06611274E-1,7.8086245E-1,8.795558E-2,-1.08585626E-1,6.832623E-2,-1.5527572E-1,-7.977649E-2],"split_indices":[150,85,456,421,309,150,253,98,0,101,379,480,225,459,0,309,56,379,228,199,325,220,253,80,459,401,0,492,450,166,36,98,204,102,0,78,22,142,0,459,0,0,0,303,22,275,459,182,0,0,0,0,0,0,0,0,0,0,0,0,0,0,0,0,0,0,0,0,0,0,0,0,0,0,0,0,0,0,0,0,0],"split_type":[0,0,0,0,0,0,0,0,0,0,0,0,0,0,0,0,0,0,0,0,0,0,0,0,0,0,0,0,0,0,0,0,0,0,0,0,0,0,0,0,0,0,0,0,0,0,0,0,0,0,0,0,0,0,0,0,0,0,0,0,0,0,0,0,0,0,0,0,0,0,0,0,0,0,0,0,0,0,0,0,0],"sum_hessian":[1.1431437E4,9.760822E3,1.6706141E3,8.402774E3,1.3580482E3,1.0156037E3,6.550104E2,8.1237646E3,2.7900983E2,1.1367444E3,2.213038E2,3.536805E2,6.619232E2,6.537829E2,1.2274624E0,7.4188457E3,7.04919E2,1.0844537E3,5.2290653E1,1.4742421E2,7.38796E1,2.9833276E2,5.5347725E1,6.487303E2,1.3192904E1,6.5277374E2,1.0091933E0,6.9160264E3,5.0281897E2,6.7514197E2,2.9777058E1,9.001238E2,1.8432997E2,5.092305E1,1.367603E0,1.4272482E2,4.6993885E0,6.97453E1,4.134296E0,2.6494202E2,3.339077E1,5.4320164E1,1.0275599E0,6.396905E2,9.039793E0,1.00878725E1,3.105032E0,6.517057E2,1.0680523E0,6.6941504E3,2.218763E2,4.800494E2,2.2769571E1,5.1561066E2,1.595313E2,2.5171806E1,4.605252E0,8.215714E2,7.855236E1,1.7662778E2,7.7022047E0,4.8367294E1,2.5557537E0,1.3684154E2,5.8832827E0,3.606388E0,1.0930005E0,6.701809E1,2.7272115E0,2.2097078E2,4.3971222E1,5.822389E2,5.745164E1,6.954662E0,2.0851314E0,6.8088865E0,3.2789855E0,2.093082E0,1.0119503E0,6.4675024E2,4.955446E0],"tree_param":{"num_deleted":"0","num_feature":"500","num_nodes":"81","size_leaf_vector":"1"}},{"base_weights":[-4.823026E-1,-4.8720255E-1,1.4279376E0,-4.905396E-1,5.5721357E-2,-9.910896E-2,4.589228E-1,-4.9155444E-1,8.239999E-1,5.5837226E-1,-4.0616757E-1,-4.9992034E-1,-3.6481223E-1,1.2580183E0,-1.03233285E-1,8.1834406E-1,-1.3341662E-1,-4.741917E-1,2.0407103E-1,-5.0182545E-1,-2.5103006E-1,-3.786957E-1,1.3034521E0,5.291056E-1,6.453028E-1,1.155371E0,-1.3671938E-1,-1.5297492E-1,6.998923E-2,-1.5069392E-1,8.396555E-2,-8.812021E-2,3.1143224E-1,-1.1712399E-1,1.7776191E-1,5.936781E-1,-8.8101126E-2,-1.0433037E-1,4.0904558E-1,4.3899667E-1,-1.12434156E-1,-1.3028681E-1,2.1097286E-1],"categories":[],"categories_nodes":[],"categories_segments":[],"categories_sizes":[],"default_left":[0,0,0,0,0,0,0,0,0,0,0,0,0,0,0,0,0,0,0,0,0,0,0,0,0,0,0,0,0,0,0,0,0,0,0,0,0,0,0,0,0,0,0],"id":16,"left_children":[1,3,5,7,9,-1,-1,11,13,15,17,19,21,23,-1,25,-1,27,-1,29,31,33,35,37,-1,39,41,-1,-1,-1,-1,-1,-1,-1,-1,-1,-1,-1,-1,-1,-1,-1,-1],"loss_changes":[8.14939E1,1.5628174E1,4.5043526E0,1.182251E1,1.264809E1,0E0,0E0,8.885742E0,3.969468E0,7.154854E0,2.4258013E0,3.677124E0,1.2844749E1,2.3122349E0,0E0,6.9282084E0,0E0,8.1079006E-1,0E0,3.1739502E0,3.769032E0,6.2589264E0,5.57218E0,3.579822E0,0E0,7.9242268E0,1.9001974E0,0E0,0E0,0E0,0E0,0E0,0E0,0E0,0E0,0E0,0E0,0E0,0E0,0E0,0E0,0E0,0E0],"parents":[2147483647,0,0,1,1,2,2,3,3,4,4,7,7,8,8,9,9,10,10,11,11,12,12,13,13,15,15,17,17,19,19,20,20,21,21,22,22,23,23,25,25,26,26],"right_children":[2,4,6,8,10,-1,-1,12,14,16,18,20,22,24,-1,26,-1,28,-1,30,32,34,36,38,-1,40,42,-1,-1,-1,-1,-1,-1,-1,-1,-1,-1,-1,-1,-1,-1,-1,-1],"split_conditions":[5.401128E-1,2.9591492E-1,4.0718015E-2,6.6846514E-1,2.6838658E-2,-9.910896E-2,4.589228E-1,8.556879E-2,2.6838658E-2,9.854739E-2,1.6666763E-1,2.1494427E-1,2.5111145E-1,5.0131463E-2,-1.03233285E-1,8.6195625E-2,-1.3341662E-1,2.2686476E-1,2.0407103E-1,5.41401E-1,2.3668799E-1,2.4431543E-1,2.7407256E-1,7.5486585E-2,6.453028E-1,8.944287E-2,4.062127E-2,-1.5297492E-1,6.998923E-2,-1.5069392E-1,8.396555E-2,-8.812021E-2,3.1143224E-1,-1.1712399E-1,1.7776191E-1,5.936781E-1,-8.8101126E-2,-1.0433037E-1,4.0904558E-1,4.3899667E-1,-1.12434156E-1,-1.3028681E-1,2.1097286E-1],"split_indices":[19,161,435,167,61,0,0,481,61,275,332,53,251,339,0,283,0,54,0,168,238,473,251,488,0,178,328,0,0,0,0,0,0,0,0,0,0,0,0,0,0,0,0],"split_type":[0,0,0,0,0,0,0,0,0,0,0,0,0,0,0,0,0,0,0,0,0,0,0,0,0,0,0,0,0,0,0,0,0,0,0,0,0,0,0,0,0,0,0],"sum_hessian":[8.631234E3,8.609895E3,2.1340195E1,8.557394E3,5.2501125E1,1.045091E0,2.0295103E1,8.551417E3,5.975736E0,2.5041168E1,2.7459957E1,8.019152E3,5.322657E2,4.3007855E0,1.6749502E0,2.0033318E1,5.007851E0,2.637221E1,1.0877475E0,7.9572266E3,6.192506E1,5.286393E2,3.6263916E0,3.244742E0,1.0560437E0,1.4652832E1,5.3804855E0,2.537039E1,1.0018198E0,7.9526235E3,4.6030893E0,6.0686893E1,1.2381667E0,5.2292834E2,5.7109165E0,2.3805306E0,1.245861E0,1.8664441E0,1.3782979E0,1.223429E1,2.4185424E0,4.329616E0,1.0508695E0],"tree_param":{"num_deleted":"0","num_feature":"500","num_nodes":"43","size_leaf_vector":"1"}},{"base_weights":[-4.7092745E-1,-5.0012696E-1,4.2292747E-1,-5.0528926E-1,-1.03750244E-1,2.1933529E-1,1.1946723E0,-5.0856346E-1,-2.259747E-1,-1.8919094E-1,1.5313818E0,1.523774E-1,1.2533178E0,1.2974486E0,-1.2276633E-1,-5.109372E-1,-2.798628E-1,-2.9890665E-1,1.3745735E0,-2.3105958E-1,3.767396E-1,5.247313E-1,1.538723E-1,1.0850735E-1,1.710128E0,8.2722884E-1,9.5582396E-1,1.4105448E0,-2.413468E-1,-5.114181E-1,2.7741715E-1,-3.4565496E-1,5.678109E-1,-3.3775556E-1,3.2849663E-1,5.999844E-1,5.4263157E-1,-2.8746736E-1,7.6197433E-1,2.2624753E-1,-3.6782613E-1,2.4090862E0,-9.095569E-2,1.1237557E0,-1.0904808E-1,1.5120459E0,-1.6925986E-1,-1.2506771E-1,4.9252544E-2,-1.535348E-1,9.139432E-2,1.874409E-1,-9.9336796E-2,-1.1627873E-1,1.6087773E-1,-1.1046055E-1,3.5599905E-1,2.1803154E-1,5.685886E-2,-9.9856034E-2,2.8735456E-1,3.580486E-2,4.026258E-1,5.4798998E-2,3.852123E-1,-1.3195984E-1,3.669393E-1,8.434339E-1,1.9952892E-1,4.6401295E-1,-2.8308885E-2,4.8033574E-1,-3.452155E-2,-1.1124669E-1,6.2266137E-2],"categories":[],"categories_nodes":[],"categories_segments":[],"categories_sizes":[],"default_left":[0,0,0,0,0,0,0,0,0,0,0,0,0,0,0,0,0,0,0,0,0,0,0,0,0,0,0,0,0,0,0,0,0,0,0,0,0,0,0,0,0,0,0,0,0,0,0,0,0,0,0,0,0,0,0,0,0,0,0,0,0,0,0,0,0,0,0,0,0,0,0,0,0,0,0],"id":17,"left_children":[1,3,5,7,9,11,13,15,17,19,21,23,25,27,-1,29,31,33,35,37,-1,-1,-1,39,41,43,-1,45,47,49,51,53,-1,55,-1,57,-1,59,61,63,65,67,-1,69,-1,71,73,-1,-1,-1,-1,-1,-1,-1,-1,-1,-1,-1,-1,-1,-1,-1,-1,-1,-1,-1,-1,-1,-1,-1,-1,-1,-1,-1,-1],"loss_changes":[2.2618274E2,1.710376E1,4.285535E1,7.45459E0,1.5524801E1,1.4927029E1,9.936478E0,4.297119E0,1.1814892E1,6.6139097E0,3.2805824E-1,1.3907295E1,8.187351E0,9.714073E0,0E0,3.2106934E0,1.2980906E1,5.474063E0,4.0678978E-1,5.9564404E0,0E0,0E0,0E0,1.1391926E1,8.583912E0,4.6874495E0,0E0,8.324829E0,3.9174262E-1,2.5625E0,1.38715E0,3.3351593E0,0E0,4.728591E0,0E0,2.305305E-2,0E0,5.8378344E0,1.9943385E0,7.2478027E0,5.1619587E0,1.115511E0,0E0,5.270774E0,0E0,7.0515747E0,3.7599942E-1,0E0,0E0,0E0,0E0,0E0,0E0,0E0,0E0,0E0,0E0,0E0,0E0,0E0,0E0,0E0,0E0,0E0,0E0,0E0,0E0,0E0,0E0,0E0,0E0,0E0,0E0,0E0,0E0],"parents":[2147483647,0,0,1,1,2,2,3,3,4,4,5,5,6,6,7,7,8,8,9,9,10,10,11,11,12,12,13,13,15,15,16,16,17,17,18,18,19,19,23,23,24,24,25,25,27,27,28,28,29,29,30,30,31,31,33,33,35,35,37,37,38,38,39,39,40,40,41,41,43,43,45,45,46,46],"right_children":[2,4,6,8,10,12,14,16,18,20,22,24,26,28,-1,30,32,34,36,38,-1,-1,-1,40,42,44,-1,46,48,50,52,54,-1,56,-1,58,-1,60,62,64,66,68,-1,70,-1,72,74,-1,-1,-1,-1,-1,-1,-1,-1,-1,-1,-1,-1,-1,-1,-1,-1,-1,-1,-1,-1,-1,-1,-1,-1,-1,-1,-1,-1],"split_conditions":[8.32489E-2,1.4031556E-1,9.907258E-2,1.360212E-1,2.1558219E-1,1.7676741E-1,8.630875E-2,1.8061988E-1,1.6760285E-1,2.7827322E-1,1.0019714E-1,2.2318402E-1,1.2954779E-1,1.20363325E-1,-1.2276633E-1,6.176924E-1,9.706404E-2,1.686448E-1,2.4471493E-1,1.531033E-1,3.767396E-1,5.247313E-1,1.538723E-1,8.339085E-2,6.615437E-2,1.20725684E-1,9.5582396E-1,7.430876E-2,4.0020302E-1,5.5350393E-1,2.8100712E-2,1.11198016E-1,5.678109E-1,2.3717955E-1,3.2849663E-1,2.5925976E-1,5.4263157E-1,1.851792E-1,2.8862193E-2,8.427898E-2,3.4110585E-1,2.8100712E-2,-9.095569E-2,3.6517277E-1,-1.0904808E-1,7.052285E-2,9.647394E-2,-1.2506771E-1,4.9252544E-2,-1.535348E-1,9.139432E-2,1.874409E-1,-9.9336796E-2,-1.1627873E-1,1.6087773E-1,-1.1046055E-1,3.5599905E-1,2.1803154E-1,5.685886E-2,-9.9856034E-2,2.8735456E-1,3.580486E-2,4.026258E-1,5.4798998E-2,3.852123E-1,-1.3195984E-1,3.669393E-1,8.434339E-1,1.9952892E-1,4.6401295E-1,-2.8308885E-2,4.8033574E-1,-3.452155E-2,-1.1124669E-1,6.2266137E-2],"split_indices":[204,489,167,482,167,236,242,167,15,98,98,441,108,240,0,107,294,395,15,72,0,0,0,303,426,160,0,154,204,474,7,460,0,167,0,482,0,236,332,15,80,7,0,236,0,110,472,0,0,0,0,0,0,0,0,0,0,0,0,0,0,0,0,0,0,0,0,0,0,0,0,0,0,0,0],"split_type":[0,0,0,0,0,0,0,0,0,0,0,0,0,0,0,0,0,0,0,0,0,0,0,0,0,0,0,0,0,0,0,0,0,0,0,0,0,0,0,0,0,0,0,0,0,0,0,0,0,0,0,0,0,0,0,0,0,0,0,0,0,0,0,0,0,0,0,0,0,0,0,0,0,0,0],"sum_hessian":[8.656864E3,8.383443E3,2.734211E2,8.275394E3,1.08050354E2,2.1736325E2,5.6057873E1,8.178698E3,9.669481E1,1.0352515E2,4.525212E0,2.0522105E2,1.2142186E1,5.2861607E1,3.196266E0,8.0934604E3,8.52381E1,9.325856E1,3.4362519E0,1.0142641E2,2.0987391E0,3.137188E0,1.3880237E0,2.006402E2,4.5808606E0,1.111895E1,1.0232362E0,4.932009E1,3.5415142E0,8.0888774E3,4.583132E0,8.3548874E1,1.6892242E0,9.1466995E1,1.7915636E0,2.0898604E0,1.3463914E0,9.664703E1,4.7793713E0,1.6129604E2,3.934416E1,3.2544434E0,1.3264171E0,8.947088E0,2.1718616E0,4.6382923E1,2.9371707E0,2.4520237E0,1.0894904E0,8.0856387E3,3.2385743E0,2.9005969E0,1.6825349E0,8.0291016E1,3.2578554E0,9.041956E1,1.0474296E0,1.0078815E0,1.0819789E0,9.39555E1,2.6915336E0,2.8395574E0,1.9398141E0,1.5603944E2,5.2566023E0,3.8331974E1,1.0121853E0,2.147022E0,1.1074214E0,6.440923E0,2.5061646E0,4.399072E1,2.392203E0,1.923934E0,1.0132366E0],"tree_param":{"num_deleted":"0","num_feature":"500","num_nodes":"75","size_leaf_vector":"1"}},{"base_weights":[-2.2989918E-1,-1.5772824E-1,1.1434499E0,-1.4018486E-1,1.1508389E0,5.687034E-1,3.4447497E-1],"categories":[],"categories_nodes":[],"categories_segments":[],"categories_sizes":[],"default_left":[0,0,0,0,0,0,0],"id":18,"left_children":[1,-1,3,-1,5,-1,-1],"loss_changes":[4.0819827E3,0E0,2.1730957E1,0E0,1.2419434E0,0E0,0E0],"parents":[2147483647,0,0,2,2,4,4],"right_children":[2,-1,4,-1,6,-1,-1],"split_conditions":[9.167722E-2,-1.5772824E-1,8.8306956E-2,-1.4018486E-1,1.0442365E-1,5.687034E-1,3.4447497E-1],"split_indices":[135,0,29,0,421,0,0],"split_type":[0,0,0,0,0,0,0],"sum_hessian":[1.0043716E4,8.264011E3,1.7797046E3,7.842561E0,1.771862E3,3.6045609E0,1.7682574E3],"tree_param":{"num_deleted":"0","num_feature":"500","num_nodes":"7","size_leaf_vector":"1"}},{"base_weights":[-5.0694144E-1,-5.073953E-1,5.0084704E-1,-5.0762165E-1,6.949826E-2,-3.569154E-2,3.0165035E-1,-5.081629E-1,-2.037935E-1,6.158203E-2,-8.007913E-2,-5.089027E-1,-2.987608E-1,-4.203854E-1,6.5389794E-1,-5.0923777E-1,-4.377324E-2,-3.8233292E-1,2.2484235E-1,-1.4646786E-1,6.670913E-2,-8.1272915E-2,3.3269942E-1,-1.5283875E-1,4.791177E-4,-8.392574E-2,1.9678293E-1,-1.3320161E-1,2.0805795E-1],"categories":[],"categories_nodes":[],"categories_segments":[],"categories_sizes":[],"default_left":[0,0,0,0,0,0,0,0,0,0,0,0,0,0,0,0,0,0,0,0,0,0,0,0,0,0,0,0,0],"id":19,"left_children":[1,3,5,7,-1,9,-1,11,13,-1,-1,15,17,19,21,23,25,27,-1,-1,-1,-1,-1,-1,-1,-1,-1,-1,-1],"loss_changes":[4.1782227E0,1.5517578E0,1.2178168E0,1.3066406E0,0E0,2.264933E-1,0E0,1.173584E0,3.4172516E0,0E0,0E0,1.3061523E0,3.1377296E0,7.2398615E-1,1.9005085E0,9.7875977E-1,1.377507E0,2.3519025E0,0E0,0E0,0E0,0E0,0E0,0E0,0E0,0E0,0E0,0E0,0E0],"parents":[2147483647,0,0,1,1,2,2,3,3,5,5,7,7,8,8,11,11,12,12,13,13,14,14,15,15,16,16,17,17],"right_children":[2,4,6,8,-1,10,-1,12,14,-1,-1,16,18,20,22,24,26,28,-1,-1,-1,-1,-1,-1,-1,-1,-1,-1,-1],"split_conditions":[6.640471E-1,2.100576E-1,1.1663364E-1,3.3913168E-1,6.949826E-2,2.6838658E-2,3.0165035E-1,3.0831265E-1,4.990202E-2,6.158203E-2,-8.007913E-2,4.223157E-1,5.7968635E-2,2.1745719E-1,3.1587847E-2,2.2107123E-1,1.5187317E-1,1.3037288E-1,2.2484235E-1,-1.4646786E-1,6.670913E-2,-8.1272915E-2,3.3269942E-1,-1.5283875E-1,4.791177E-4,-8.392574E-2,1.9678293E-1,-1.3320161E-1,2.0805795E-1],"split_indices":[4,18,401,117,0,61,0,42,368,0,0,493,468,68,283,314,390,200,0,0,0,0,0,0,0,0,0,0,0],"split_type":[0,0,0,0,0,0,0,0,0,0,0,0,0,0,0,0,0,0,0,0,0,0,0,0,0,0,0,0,0],"sum_hessian":[8.577656E3,8.574291E3,3.3651233E0,8.571979E3,2.311804E0,2.0814455E0,1.2836777E0,8.556063E3,1.5915428E1,1.0742747E0,1.0071709E0,8.524517E3,3.1546532E1,1.3113703E1,2.8017254E0,8.518286E3,6.2312016E0,2.9805506E1,1.7410275E0,1.2079181E1,1.0345217E0,1.0575024E0,1.744223E0,8.514543E3,3.7425277E0,5.1085396E0,1.1226625E0,2.874503E1,1.0604751E0],"tree_param":{"num_deleted":"0","num_feature":"500","num_nodes":"29","size_leaf_vector":"1"}},{"base_weights":[-3.383612E-1,-4.2552432E-1,7.412867E-1,-4.6154904E-1,-4.5581724E-2,8.294246E-1,-3.4062076E-2,-4.705714E-1,4.1053516E-1,-1.4654735E-1,8.313413E-1,9.151761E-1,7.447841E-2,-9.6605405E-2,5.251468E-1,-4.7664216E-1,1.4524116E-1,1.4454507E-2,1.0827383E0,-2.3090942E-1,3.3595887E-1,3.5886583E-1,1.6148626E0,8.733085E-1,2.188606E0,-6.7001574E-2,8.5394114E-1,-1.6996355E-1,1.2442067E0,-4.8045054E-1,-1.3668138E-1,4.2394885E-1,-4.703546E-1,-8.553423E-2,4.8377544E-1,1.2501347E0,-1.7780095E-1,-2.7811182E-1,6.655247E-1,2.5106087E-1,2.0298057E0,5.890327E-1,-2.2945319E-1,1.8380809E0,-1.611692E-1,8.0920947E-1,1.5275185E0,2.372572E0,2.7553676E-2,-1.734983E-1,1.1997184E0,1.8173064E-1,6.8154776E-1,-2.2551723E-1,4.838062E-1,5.8587486E-1,2.6906582E-2,-1.4477259E-1,2.9662892E-2,-7.237036E-2,2.773889E-1,6.0079187E-2,4.0921164E-1,-1.5355694E-1,6.873453E-2,-5.206858E-2,3.785245E-1,4.4529828E-1,3.0125083E-2,-1.11511394E-1,6.419687E-2,-8.7197214E-2,6.724526E-1,1.05519325E-1,4.7041914E-1,4.6780977E-2,3.132836E-1,1.9015001E-2,9.122294E-1,2.51944E-1,-7.552533E-2,-1.06644824E-1,2.0012593E-1,6.1915505E-1,-3.3799376E-2,6.650778E-2,-1.0974127E-1,2.1049167E-1,3.8021573E-1,4.9359974E-1,-1.22290865E-1,7.606958E-1,5.5187043E-2,-6.7839906E-2,3.565664E-1,6.239741E-1,-2.9012834E-4,-1.22978695E-1,2.0712723E-1,-7.951103E-2,2.4324559E-1],"categories":[],"categories_nodes":[],"categories_segments":[],"categories_sizes":[],"default_left":[0,0,0,0,0,0,0,0,0,0,0,0,0,0,0,0,0,0,0,0,0,0,0,0,0,0,0,0,0,0,0,0,0,0,0,0,0,0,0,0,0,0,0,0,0,0,0,0,0,0,0,0,0,0,0,0,0,0,0,0,0,0,0,0,0,0,0,0,0,0,0,0,0,0,0,0,0,0,0,0,0,0,0,0,0,0,0,0,0,0,0,0,0,0,0,0,0,0,0,0,0],"id":20,"left_children":[1,3,5,7,9,11,13,15,17,19,21,23,25,27,-1,29,31,33,35,37,39,41,43,45,47,49,51,53,55,57,59,61,63,65,-1,67,69,71,73,75,77,79,81,83,85,87,89,91,-1,93,95,97,-1,99,-1,-1,-1,-1,-1,-1,-1,-1,-1,-1,-1,-1,-1,-1,-1,-1,-1,-1,-1,-1,-1,-1,-1,-1,-1,-1,-1,-1,-1,-1,-1,-1,-1,-1,-1,-1,-1,-1,-1,-1,-1,-1,-1,-1,-1,-1,-1],"loss_changes":[8.463274E2,1.13845215E2,4.594693E1,5.998059E1,6.401007E1,3.899411E1,7.9313436E0,2.8186646E1,2.0842524E1,2.6451725E1,2.7056324E1,2.6972717E1,6.9644804E0,6.913645E0,0E0,9.577148E0,1.2927834E1,8.177041E0,6.348446E0,2.3546436E1,1.3415414E1,6.615356E0,1.1316017E1,2.0828705E1,6.177887E0,7.484707E0,8.827644E0,6.8488264E0,2.8152952E0,9.113525E0,9.533838E0,1.0576012E1,8.022022E-1,5.9468365E0,0E0,6.7852745E0,4.0461278E-1,1.725262E1,7.3533382E0,6.8810077E0,8.714617E0,7.52345E0,1.8390218E0,1.1143326E1,3.9627847E-1,2.2834656E1,1.1118782E1,4.959877E0,0E0,3.8985176E0,4.556477E0,2.5896535E0,0E0,2.8517342E0,0E0,0E0,0E0,0E0,0E0,0E0,0E0,0E0,0E0,0E0,0E0,0E0,0E0,0E0,0E0,0E0,0E0,0E0,0E0,0E0,0E0,0E0,0E0,0E0,0E0,0E0,0E0,0E0,0E0,0E0,0E0,0E0,0E0,0E0,0E0,0E0,0E0,0E0,0E0,0E0,0E0,0E0,0E0,0E0,0E0,0E0,0E0],"parents":[2147483647,0,0,1,1,2,2,3,3,4,4,5,5,6,6,7,7,8,8,9,9,10,10,11,11,12,12,13,13,15,15,16,16,17,17,18,18,19,19,20,20,21,21,22,22,23,23,24,24,25,25,26,26,27,27,28,28,29,29,30,30,31,31,32,32,33,33,35,35,36,36,37,37,38,38,39,39,40,40,41,41,42,42,43,43,44,44,45,45,46,46,47,47,49,49,50,50,51,51,53,53],"right_children":[2,4,6,8,10,12,14,16,18,20,22,24,26,28,-1,30,32,34,36,38,40,42,44,46,48,50,52,54,56,58,60,62,64,66,-1,68,70,72,74,76,78,80,82,84,86,88,90,92,-1,94,96,98,-1,100,-1,-1,-1,-1,-1,-1,-1,-1,-1,-1,-1,-1,-1,-1,-1,-1,-1,-1,-1,-1,-1,-1,-1,-1,-1,-1,-1,-1,-1,-1,-1,-1,-1,-1,-1,-1,-1,-1,-1,-1,-1,-1,-1,-1,-1,-1,-1],"split_conditions":[4.142434E-2,4.948085E-2,1.4031762E-1,1.6678621E-1,9.9032775E-2,4.9704432E-2,1.5420595E-1,1.3763337E-1,1.7473324E-1,4.58227E-2,3.182077E-2,2.5819585E-1,1.7521092E-1,1.956147E-1,5.251468E-1,4.58227E-2,9.5309965E-2,4.0017027E-1,1.2302139E-1,6.923657E-2,9.8683596E-2,3.5830166E-2,7.201999E-2,2.1936776E-1,1.7647249E-1,1.96432E-1,6.466742E-2,5.229318E-2,4.8315067E-2,3.5664636E-1,1.11703575E-1,3.6488436E-2,1.6268435E-1,1.2404584E-1,4.8377544E-1,4.8315067E-2,1.6468872E-1,2.692442E-1,9.842385E-2,3.4629112E-1,4.3487836E-2,1.7634165E-1,1.5415609E-1,4.3495264E-2,1.5082522E-1,6.1981328E-2,2.1718515E-1,4.8652925E-2,2.7553676E-2,1.7918994E-1,2.4409743E-1,1.618872E-1,6.8154776E-1,5.0616022E-2,4.838062E-1,5.8587486E-1,2.6906582E-2,-1.4477259E-1,2.9662892E-2,-7.237036E-2,2.773889E-1,6.0079187E-2,4.0921164E-1,-1.5355694E-1,6.873453E-2,-5.206858E-2,3.785245E-1,4.4529828E-1,3.0125083E-2,-1.11511394E-1,6.419687E-2,-8.7197214E-2,6.724526E-1,1.05519325E-1,4.7041914E-1,4.6780977E-2,3.132836E-1,1.9015001E-2,9.122294E-1,2.51944E-1,-7.552533E-2,-1.06644824E-1,2.0012593E-1,6.1915505E-1,-3.3799376E-2,6.650778E-2,-1.0974127E-1,2.1049167E-1,3.8021573E-1,4.9359974E-1,-1.22290865E-1,7.606958E-1,5.5187043E-2,-6.7839906E-2,3.565664E-1,6.239741E-1,-2.9012834E-4,-1.22978695E-1,2.0712723E-1,-7.951103E-2,2.4324559E-1],"split_indices":[170,246,275,69,269,379,113,95,318,243,178,257,85,41,0,243,215,121,325,95,99,7,32,95,359,187,173,201,160,121,229,85,149,240,0,160,325,416,436,243,217,224,497,283,246,121,436,200,0,442,187,170,0,104,0,0,0,0,0,0,0,0,0,0,0,0,0,0,0,0,0,0,0,0,0,0,0,0,0,0,0,0,0,0,0,0,0,0,0,0,0,0,0,0,0,0,0,0,0,0,0],"split_type":[0,0,0,0,0,0,0,0,0,0,0,0,0,0,0,0,0,0,0,0,0,0,0,0,0,0,0,0,0,0,0,0,0,0,0,0,0,0,0,0,0,0,0,0,0,0,0,0,0,0,0,0,0,0,0,0,0,0,0,0,0,0,0,0,0,0,0,0,0,0,0,0,0,0,0,0,0,0,0,0,0,0,0,0,0,0,0,0,0,0,0,0,0,0,0,0,0,0,0,0,0],"sum_hessian":[8.989039E3,8.318101E3,6.709387E2,7.597518E3,7.205824E2,6.0239197E2,6.854675E1,7.5201763E3,7.7341545E1,6.469302E2,7.365222E1,5.4075714E2,6.163481E1,6.713957E1,1.407181E0,7.446989E3,7.318741E1,4.930889E1,2.8032656E1,5.5109705E2,9.583317E1,4.6855587E1,2.6796633E1,5.251763E2,1.5580884E1,5.2939774E1,8.695037E0,6.448474E1,2.6548333E0,7.3640806E3,8.290863E1,5.0593014E1,2.2594397E1,4.729623E1,2.012661E0,2.4753683E1,3.278972E0,5.241854E2,2.6911612E1,9.235255E1,3.4806213E0,3.367843E1,1.3177159E1,2.3773726E1,3.0229065E0,4.8034897E2,4.482731E1,1.420318E1,1.3777039E0,4.963025E1,3.3095222E0,6.663895E0,2.0311418E0,6.3382996E1,1.101744E0,1.216521E0,1.4383124E0,7.337337E3,2.6743391E1,7.61769E1,6.7317286E0,4.1848587E1,8.744424E0,2.1582083E1,1.0123142E0,4.5213295E1,2.0829346E0,2.0322947E1,4.4307375E0,2.2277086E0,1.0512633E0,5.224686E2,1.7168009E0,2.1000051E1,5.9115596E0,8.353183E1,8.820719E0,1.5426668E0,1.9379544E0,2.5941895E1,7.736535E0,1.2082217E1,1.0949426E0,2.1255716E1,2.5180085E0,1.023895E0,1.9990116E0,3.9106595E2,8.9283005E1,4.239597E1,2.431337E0,1.3070679E1,1.1325021E0,4.8586662E1,1.0435897E0,1.4870949E0,1.8224273E0,3.1704772E0,3.493418E0,6.177166E1,1.6113378E0],"tree_param":{"num_deleted":"0","num_feature":"500","num_nodes":"101","size_leaf_vector":"1"}},{"base_weights":[-5.0439847E-1,-5.0462055E-1,4.7813952E-2,-5.048431E-1,2.7438993E-2,8.255949E-2,-8.768555E-2,-5.0536954E-1,-2.7232036E-1,8.021289E-2,-9.1359094E-2,-5.0548387E-1,6.532123E-2,-4.0588936E-1,3.7065095E-1,-5.0559807E-1,6.421572E-2,-1.4981869E-1,1.7983925E-1,-1.5171339E-1,5.9988614E-2,2.1469468E-2,6.819375E-2],"categories":[],"categories_nodes":[],"categories_segments":[],"categories_sizes":[],"default_left":[0,0,0,0,0,0,0,0,0,0,0,0,0,0,0,0,0,0,0,0,0,0,0],"id":21,"left_children":[1,3,5,7,9,-1,-1,11,13,-1,-1,15,-1,17,-1,19,-1,-1,21,-1,-1,-1,-1],"loss_changes":[1.0771484E0,1.0297852E0,4.1797036E-1,9.123535E-1,4.426851E-1,0E0,0E0,8.1689453E-1,4.8401775E0,0E0,0E0,8.112793E-1,0E0,1.2149105E0,0E0,7.844238E-1,0E0,0E0,2.047725E-3,0E0,0E0,0E0,0E0],"parents":[2147483647,0,0,1,1,2,2,3,3,4,4,7,7,8,8,11,11,13,13,15,15,18,18],"right_children":[2,4,6,8,10,-1,-1,12,14,-1,-1,16,-1,18,-1,20,-1,-1,22,-1,-1,-1,-1],"split_conditions":[4.8673218E-1,4.5904893E-1,3.970439E-2,2.5412175E-1,4.1093152E-2,8.255949E-2,-8.768555E-2,8.21922E-1,7.164835E-2,8.021289E-2,-9.1359094E-2,5.9570897E-1,6.532123E-2,9.205932E-2,3.7065095E-1,6.7573065E-1,6.421572E-2,-1.4981869E-1,2.0173836E-1,-1.5171339E-1,5.9988614E-2,2.1469468E-2,6.819375E-2],"split_indices":[483,240,275,465,36,0,0,308,172,0,0,44,0,162,0,348,0,0,275,0,0,0,0],"split_type":[0,0,0,0,0,0,0,0,0,0,0,0,0,0,0,0,0,0,0,0,0,0,0],"sum_hessian":[8.582461E3,8.579096E3,3.364671E0,8.575561E3,3.5355015E0,2.1308508E0,1.2338203E0,8.555018E3,2.0542868E1,2.1651628E0,1.3703387E0,8.553967E3,1.0508415E0,1.9542524E1,1.0003434E0,8.552906E3,1.0606513E0,1.6979322E1,2.5632E0,8.551817E3,1.0885936E0,1.5455874E0,1.0176127E0],"tree_param":{"num_deleted":"0","num_feature":"500","num_nodes":"23","size_leaf_vector":"1"}},{"base_weights":[1.0626808E0,1.0937248E0,2.4048025E-2,1.107948E0,-1.5557088E-1,-1.8048635E-1,7.5006306E-1,1.1383647E0,3.3511543E-1,-2.5959095E-1,1.3528103E0,8.7251717E-1,2.8865242E-1,1.1592411E0,3.0297944E-1,2.4555793E-1,1.4793909E0,-3.0934328E-1,6.563032E-1,1.4993055E0,-1.3594718E-1,9.25469E-1,-3.0326647E-1,5.090194E-1,-2.5769308E-1,1.1711465E0,5.182323E-2,1.3927749E-1,9.679191E-1,1.4853662E-1,9.0678674E-1,1.5075196E0,-1.044619E-1,-3.3778298E-1,6.4482296E-1,8.600246E-1,-9.758325E-2,1.5636911E0,1.050512E-2,1.0463662E0,4.747508E-1,-1.6497128E-1,1.8415481E-1,7.204059E-1,-3.100959E-1,-3.912056E-1,2.0553525E-1,3.465385E-1,5.761684E-1,-4.008017E-2,2.4021879E-1,-4.7417236E-3,2.3855445E-1,3.084858E-1,-3.1248478E-2,1.2197149E-2,2.1745346E-1,3.0658078E-1,1.4561972E-1,5.1413167E-1,3.345841E-1,-1.16458766E-1,4.0991023E-2,2.751493E-1,-4.3148123E-2,3.0484426E-1,-2.2534652E-2,-1.5941802E-1,2.4878772E-1,4.8616278E-1,1.592443E-2,3.4349307E-1,1.16410166E-1,-1.4790048E-1,1.8543859E-1,2.6867804E-1,-3.4185912E-2,-1.65809E-1,1.01463355E-1,-1.643178E-1,1.9759847E-1],"categories":[],"categories_nodes":[],"categories_segments":[],"categories_sizes":[],"default_left":[0,0,0,0,0,0,0,0,0,0,0,0,0,0,0,0,0,0,0,0,0,0,0,0,0,0,0,0,0,0,0,0,0,0,0,0,0,0,0,0,0,0,0,0,0,0,0,0,0,0,0,0,0,0,0,0,0,0,0,0,0,0,0,0,0,0,0,0,0,0,0,0,0,0,0,0,0,0,0,0,0],"id":22,"left_children":[1,3,5,7,-1,9,11,13,15,17,19,21,23,25,27,29,31,33,35,37,-1,39,41,43,45,47,49,51,53,55,57,59,-1,61,63,65,67,69,-1,71,73,-1,-1,75,77,79,-1,-1,-1,-1,-1,-1,-1,-1,-1,-1,-1,-1,-1,-1,-1,-1,-1,-1,-1,-1,-1,-1,-1,-1,-1,-1,-1,-1,-1,-1,-1,-1,-1,-1,-1],"loss_changes":[1.0336758E3,7.1441016E2,1.384502E2,7.249844E2,0E0,8.859256E1,1.1326744E1,5.1740234E2,1.19524826E2,3.176633E1,1.016494E1,1.0332626E1,5.485607E0,3.818125E2,7.880196E1,6.954661E1,4.880066E0,1.8064156E1,5.614146E0,3.0937042E0,0E0,7.935135E0,2.0817232E0,5.7688713E0,1.9606076E0,3.4176953E2,4.3032085E1,5.93235E1,9.367859E0,5.8933353E1,6.2380905E0,4.853592E0,0E0,1.5342598E1,4.294055E0,4.229883E0,3.8819313E0,2.659195E0,0E0,7.422699E0,5.099856E0,0E0,0E0,3.8671207E0,1.3301597E0,2.4008563E0,0E0,0E0,0E0,0E0,0E0,0E0,0E0,0E0,0E0,0E0,0E0,0E0,0E0,0E0,0E0,0E0,0E0,0E0,0E0,0E0,0E0,0E0,0E0,0E0,0E0,0E0,0E0,0E0,0E0,0E0,0E0,0E0,0E0,0E0,0E0],"parents":[2147483647,0,0,1,1,2,2,3,3,5,5,6,6,7,7,8,8,9,9,10,10,11,11,12,12,13,13,14,14,15,15,16,16,17,17,18,18,19,19,21,21,22,22,23,23,24,24,25,25,26,26,27,27,28,28,29,29,30,30,31,31,33,33,34,34,35,35,36,36,37,37,39,39,40,40,43,43,44,44,45,45],"right_children":[2,4,6,8,-1,10,12,14,16,18,20,22,24,26,28,30,32,34,36,38,-1,40,42,44,46,48,50,52,54,56,58,60,-1,62,64,66,68,70,-1,72,74,-1,-1,76,78,80,-1,-1,-1,-1,-1,-1,-1,-1,-1,-1,-1,-1,-1,-1,-1,-1,-1,-1,-1,-1,-1,-1,-1,-1,-1,-1,-1,-1,-1,-1,-1,-1,-1,-1,-1],"split_conditions":[5.038717E-2,1.0442365E-1,6.1247434E-2,4.142434E-2,-1.5557088E-1,1.8519022E-1,6.2546074E-2,9.3164004E-2,4.895388E-2,9.554085E-2,3.182077E-2,1.8957613E-1,1.2127961E-1,9.505351E-2,5.210705E-2,5.344851E-2,1.6142346E-1,5.357975E-2,1.0653837E-1,1.3824752E-1,-1.3594718E-1,8.6702146E-2,3.8553733E-2,3.1454206E-2,1.1059273E-1,2.2737922E-1,3.8151156E-2,1.3919106E-1,1.5009175E-1,3.0912843E-2,1.1115933E-1,5.3959258E-2,-1.044619E-1,1.0636381E-1,3.581139E-2,9.905019E-2,1.5098242E-1,1.6999125E-1,1.050512E-2,1.3363694E-1,9.287447E-2,-1.6497128E-1,1.8415481E-1,1.4665829E-1,9.519401E-2,1.0199834E-1,2.0553525E-1,3.465385E-1,5.761684E-1,-4.008017E-2,2.4021879E-1,-4.7417236E-3,2.3855445E-1,3.084858E-1,-3.1248478E-2,1.2197149E-2,2.1745346E-1,3.0658078E-1,1.4561972E-1,5.1413167E-1,3.345841E-1,-1.16458766E-1,4.0991023E-2,2.751493E-1,-4.3148123E-2,3.0484426E-1,-2.2534652E-2,-1.5941802E-1,2.4878772E-1,4.8616278E-1,1.592443E-2,3.4349307E-1,1.16410166E-1,-1.4790048E-1,1.8543859E-1,2.6867804E-1,-3.4185912E-2,-1.65809E-1,1.01463355E-1,-1.643178E-1,1.9759847E-1],"split_indices":[53,421,246,170,0,480,4,328,101,22,178,106,243,329,65,379,121,456,61,435,0,170,379,46,320,62,22,246,269,22,85,459,0,85,488,106,22,67,0,178,53,0,0,401,410,108,0,0,0,0,0,0,0,0,0,0,0,0,0,0,0,0,0,0,0,0,0,0,0,0,0,0,0,0,0,0,0,0,0,0,0],"split_type":[0,0,0,0,0,0,0,0,0,0,0,0,0,0,0,0,0,0,0,0,0,0,0,0,0,0,0,0,0,0,0,0,0,0,0,0,0,0,0,0,0,0,0,0,0,0,0,0,0,0,0,0,0,0,0,0,0,0,0,0,0,0,0,0,0,0,0,0,0,0,0,0,0,0,0,0,0,0,0,0,0],"sum_hessian":[3.205832E4,3.1127875E4,9.3044415E2,3.085599E4,2.7188623E2,7.2651917E2,2.03925E2,2.9687104E4,1.168886E3,6.9166595E2,3.485317E1,1.6045163E2,4.3473366E1,2.8962928E4,7.2417566E2,1.0851691E3,8.371691E1,6.566579E2,3.500809E1,3.2395164E1,2.4580035E0,1.5374075E2,6.710878E0,3.1027021E1,1.2446343E1,2.8654814E4,3.0811392E2,5.82082E2,1.4209369E2,9.473851E2,1.3778404E2,8.262043E1,1.0964842E0,6.382794E2,1.8378452E1,2.7449638E1,7.5584517E0,3.09657E1,1.4294647E0,1.20182396E2,3.3558357E1,5.604162E0,1.1067156E0,2.4758245E1,6.2687764E0,1.1414927E1,1.031417E0,2.8057646E4,5.971681E2,2.4762527E2,6.0488647E1,4.7156107E2,1.1052093E2,1.3455783E2,7.535853E0,7.9890765E2,1.4847743E2,1.07094124E2,3.0689909E1,5.193964E1,3.0680786E1,5.7713367E2,6.1145767E1,1.3539841E1,4.8386126E0,2.344829E1,4.00135E0,5.439336E0,2.1191158E0,2.977245E1,1.193252E0,1.0388274E2,1.629966E1,4.0156407E0,2.9542717E1,2.0401268E1,4.3569765E0,4.6690607E0,1.599716E0,1.0350155E1,1.0647719E0],"tree_param":{"num_deleted":"0","num_feature":"500","num_nodes":"81","size_leaf_vector":"1"}},{"base_weights":[-4.7453895E-1,-4.8245513E-1,-3.640659E-1,-4.8358738E-1,2.127194E-2,-3.8986233E-1,3.8383946E-2,-4.8532107E-1,-1.8188997E-1,-1.8792911E-1,8.655589E-1,-4.01026E-1,4.2461553E-1,-5.3815328E-2,3.9981517E-1,-4.8817298E-1,-3.4252998E-1,-2.8652415E-1,7.5702155E-1,-2.9764116E-1,2.1905755E-1,4.02433E-1,-7.964252E-2,-4.0621436E-1,2.4218331E-1,-3.2704394E-2,9.2358637E-1,-1.6600566E-1,8.273678E-1,-4.9013245E-1,-3.2908455E-1,-3.944736E-1,2.606685E-2,-3.471143E-1,1.951917E-1,-5.308617E-2,4.2100656E-1,-4.2172045E-1,1.9151735E-1,-4.1139102E-1,2.1373823E-1,-1.1910021E-1,1.975552E-1,4.5803723E-1,1.7336259E-2,-2.7285114E-1,7.85772E-1,3.122375E-2,3.512796E-1,-1.4725135E-1,-3.2918483E-2,-1.1024656E-1,4.1433898E-1,-1.2430357E-1,2.0835814E-1,3.4588602E-1,-4.0072557E-2,-1.2422934E-1,2.0520422E-1,6.27885E-2,-8.449015E-2,-1.4707191E-1,5.9228085E-2,-1.2588309E-1,9.7615756E-2,-1.0903069E-1,1.7766224E-1,3.2501104E-1,4.386021E-2],"categories":[],"categories_nodes":[],"categories_segments":[],"categories_sizes":[],"default_left":[0,0,0,0,0,0,0,0,0,0,0,0,0,0,0,0,0,0,0,0,0,0,0,0,0,0,0,0,0,0,0,0,0,0,0,0,0,0,0,0,0,0,0,0,0,0,0,0,0,0,0,0,0,0,0,0,0,0,0,0,0,0,0,0,0,0,0,0,0],"id":23,"left_children":[1,3,5,7,9,11,13,15,17,19,21,23,25,27,-1,29,31,33,35,37,-1,-1,-1,39,-1,41,43,45,47,49,51,53,55,57,-1,59,-1,61,-1,63,-1,-1,-1,-1,-1,65,67,-1,-1,-1,-1,-1,-1,-1,-1,-1,-1,-1,-1,-1,-1,-1,-1,-1,-1,-1,-1,-1,-1],"loss_changes":[7.3791504E0,4.606079E0,6.054146E0,4.1170654E0,3.5237532E0,5.1417084E0,4.361993E0,3.0878906E0,4.887045E0,1.8362707E0,2.486072E0,3.7124863E0,1.828006E0,3.5501611E0,0E0,2.2807617E0,3.07127E0,2.6956718E0,2.7139678E0,2.019144E0,0E0,0E0,0E0,3.4100342E0,0E0,1.5397803E0,1.8973262E0,3.4132247E0,8.885E-1,2.022461E0,6.968173E0,3.3214855E0,3.8752167E0,3.1500592E0,0E0,2.5087526E-1,0E0,6.8671703E-1,0E0,3.384781E0,0E0,0E0,0E0,0E0,0E0,2.4895074E0,4.9494028E-1,0E0,0E0,0E0,0E0,0E0,0E0,0E0,0E0,0E0,0E0,0E0,0E0,0E0,0E0,0E0,0E0,0E0,0E0,0E0,0E0,0E0,0E0],"parents":[2147483647,0,0,1,1,2,2,3,3,4,4,5,5,6,6,7,7,8,8,9,9,10,10,11,11,12,12,13,13,15,15,16,16,17,17,18,18,19,19,23,23,25,25,26,26,27,27,28,28,29,29,30,30,31,31,32,32,33,33,35,35,37,37,39,39,45,45,46,46],"right_children":[2,4,6,8,10,12,14,16,18,20,22,24,26,28,-1,30,32,34,36,38,-1,-1,-1,40,-1,42,44,46,48,50,52,54,56,58,-1,60,-1,62,-1,64,-1,-1,-1,-1,-1,66,68,-1,-1,-1,-1,-1,-1,-1,-1,-1,-1,-1,-1,-1,-1,-1,-1,-1,-1,-1,-1,-1,-1],"split_conditions":[2.1650402E-1,2.1378885E-1,9.0644106E-2,2.3664771E-1,1.434975E-1,3.0253676E-1,6.202808E-2,9.584678E-2,8.666598E-2,1.2821707E-1,2.670552E-1,3.2711327E-1,4.8743315E-2,1.5194458E-1,3.9981517E-1,7.9036094E-2,9.636748E-2,2.2664037E-1,3.0912843E-2,2.2463033E-1,2.1905755E-1,4.02433E-1,-7.964252E-2,1.1364782E-1,2.4218331E-1,3.8151156E-2,8.773858E-2,1.12928115E-1,4.7110643E-2,4.141381E-1,2.9978132E-1,1.4794846E-1,1.4456269E-1,7.539278E-2,1.951917E-1,3.3230975E-1,4.2100656E-1,1.8362263E-1,1.9151735E-1,2.038079E-1,2.1373823E-1,-1.1910021E-1,1.975552E-1,4.5803723E-1,1.7336259E-2,2.4126218E-1,1.8544641E-1,3.122375E-2,3.512796E-1,-1.4725135E-1,-3.2918483E-2,-1.1024656E-1,4.1433898E-1,-1.2430357E-1,2.0835814E-1,3.4588602E-1,-4.0072557E-2,-1.2422934E-1,2.0520422E-1,6.27885E-2,-8.449015E-2,-1.4707191E-1,5.9228085E-2,-1.2588309E-1,9.7615756E-2,-1.0903069E-1,1.7766224E-1,3.2501104E-1,4.386021E-2],"split_indices":[275,381,261,83,303,305,25,204,439,302,381,388,332,413,0,236,332,390,22,485,0,0,0,237,0,22,178,298,323,162,85,290,204,375,0,83,0,261,0,267,0,0,0,0,0,489,261,0,0,0,0,0,0,0,0,0,0,0,0,0,0,0,0,0,0,0,0,0,0],"split_type":[0,0,0,0,0,0,0,0,0,0,0,0,0,0,0,0,0,0,0,0,0,0,0,0,0,0,0,0,0,0,0,0,0,0,0,0,0,0,0,0,0,0,0,0,0,0,0,0,0,0,0,0,0,0,0,0,0,0,0,0,0,0,0,0,0,0,0,0,0],"sum_hessian":[8.637703E3,8.056994E3,5.80709E2,8.038965E3,1.8029446E1,5.4575793E2,3.4951023E1,7.9924277E3,4.6536987E1,1.5072202E1,2.957244E0,5.388794E2,6.878548E0,3.3521603E1,1.4294227E0,7.8335537E3,1.5887387E2,4.2495983E1,4.041004E0,1.4067056E1,1.0051461E0,1.9505249E0,1.0067191E0,5.372364E2,1.6430327E0,4.0766487E0,2.8018994E0,3.0455664E1,3.0659387E0,7.7361875E3,9.736657E1,1.3918881E2,1.9685062E1,4.0506725E1,1.989258E0,2.200627E0,1.8403771E0,1.29057455E1,1.1613104E0,5.353911E2,1.8452678E0,2.9483998E0,1.1282489E0,1.2014198E0,1.6004797E0,2.8023142E1,2.4325218E0,1.4069326E0,1.659006E0,7.7215786E3,1.46089E1,9.599604E1,1.3705325E0,1.3730289E2,1.8859243E0,1.6705825E0,1.801448E1,3.8597767E1,1.90896E0,1.0636997E0,1.1369274E0,1.1807271E1,1.0984743E0,5.299101E2,5.4810176E0,2.5891762E1,2.1313791E0,1.1865225E0,1.2459992E0],"tree_param":{"num_deleted":"0","num_feature":"500","num_nodes":"69","size_leaf_vector":"1"}},{"base_weights":[4.2919526E-1,6.227405E-1,-1.5503834E-1,5.409909E-1,1.4075347E0,2.9904336E-2,-4.5645797E-1,4.362534E-1,1.1727145E0,1.4960651E0,-2.624468E-2,-2.5433093E-2,1.0759012E0,-4.6151322E-1,5.649032E-1,3.4213632E-1,1.1082112E0,1.0634669E0,1.4850335E0,1.5417073E0,1.4096583E-1,6.0521364E-1,-4.224337E-1,-7.203456E-2,9.1509163E-1,1.2032449E0,-1.4022826E-1,-4.7045702E-1,4.6059048E-1,2.866309E-1,1.4533703E0,1.0545535E0,1.6683434E0,1.0991486E0,-1.4738877E-1,1.3964915E0,2.35523E0,1.5724052E0,9.503846E-2,-7.8928754E-2,1.3020018E0,7.728957E-1,-1.15812995E-1,-4.8208627E-1,2.0607977E-1,-1.1984397E-1,6.671359E-1,1.0894238E0,-2.3624322E-1,1.3141443E0,-1.1481072E-1,-4.8251098E-1,6.933529E-2,6.0496825E-1,-5.9723996E-2,1.1083686E-1,-1.0911582E-1,4.8337266E-1,1.6938685E-1,2.8319067E-1,3.886924E-1,5.112469E-1,-1.01401664E-1,3.3804023E-1,-8.7988205E-2,-8.555802E-2,3.9964563E-1,4.3519068E-1,2.4203712E-2,7.717481E-1,4.194567E-2,4.8220813E-1,1.1376024E-1,-4.4790246E-2,4.213144E-1,-6.652281E-2,3.5893452E-1,1.2780863E-1,6.494878E-1,2.815089E-1,-1.087037E-1,-1.5403393E-1,6.864211E-2,-4.4354998E-2,2.6085562E-1,1.383641E-1,4.476659E-1,2.4447004E-1,5.7465637E-1,-1.17185034E-1,2.154215E-1,4.2330542E-1,2.3367679E-2,-1.3679416E-1,1.7093286E-1,-1.4554018E-1,3.4898835E-1,-2.4800653E-2,3.3725435E-1,-9.582854E-2,1.6099879E-1],"categories":[],"categories_nodes":[],"categories_segments":[],"categories_sizes":[],"default_left":[0,0,0,0,0,0,0,0,0,0,0,0,0,0,0,0,0,0,0,0,0,0,0,0,0,0,0,0,0,0,0,0,0,0,0,0,0,0,0,0,0,0,0,0,0,0,0,0,0,0,0,0,0,0,0,0,0,0,0,0,0,0,0,0,0,0,0,0,0,0,0,0,0,0,0,0,0,0,0,0,0,0,0,0,0,0,0,0,0,0,0,0,0,0,0,0,0,0,0,0,0],"id":24,"left_children":[1,3,5,7,9,11,13,15,17,19,21,23,25,27,-1,29,31,33,35,37,39,41,43,45,47,49,-1,51,53,55,57,59,61,63,65,67,69,71,73,75,77,79,-1,81,-1,83,85,87,89,91,93,95,97,-1,99,-1,-1,-1,-1,-1,-1,-1,-1,-1,-1,-1,-1,-1,-1,-1,-1,-1,-1,-1,-1,-1,-1,-1,-1,-1,-1,-1,-1,-1,-1,-1,-1,-1,-1,-1,-1,-1,-1,-1,-1,-1,-1,-1,-1,-1,-1],"loss_changes":[1.3912156E3,5.9213184E2,1.7071773E2,5.5336597E2,1.1062366E2,1.099307E2,1.4640945E1,4.5384326E2,3.902112E1,5.0533813E1,1.3176752E1,7.914794E1,1.9316826E1,9.806259E0,0E0,3.8824323E2,2.4747437E1,3.8402588E1,2.0275818E1,3.5099243E1,7.209912E0,3.676355E0,2.470314E0,6.0865116E1,1.736879E1,1.3077103E1,0E0,7.529785E0,9.5725975E0,3.2347534E2,4.1116272E1,2.0306824E1,5.992325E0,3.3438843E1,5.7252407E0,1.9835022E1,1.2534515E1,3.1804688E1,5.8265266E0,4.700062E0,2.4717436E0,3.6677895E0,0E0,8.1445026E-1,0E0,4.4915913E1,1.7091412E1,1.5270798E1,2.053195E0,9.668457E0,2.077549E0,5.4296265E0,4.268177E0,0E0,1.6769987E0,0E0,0E0,0E0,0E0,0E0,0E0,0E0,0E0,0E0,0E0,0E0,0E0,0E0,0E0,0E0,0E0,0E0,0E0,0E0,0E0,0E0,0E0,0E0,0E0,0E0,0E0,0E0,0E0,0E0,0E0,0E0,0E0,0E0,0E0,0E0,0E0,0E0,0E0,0E0,0E0,0E0,0E0,0E0,0E0,0E0,0E0],"parents":[2147483647,0,0,1,1,2,2,3,3,4,4,5,5,6,6,7,7,8,8,9,9,10,10,11,11,12,12,13,13,15,15,16,16,17,17,18,18,19,19,20,20,21,21,22,22,23,23,24,24,25,25,27,27,28,28,29,29,30,30,31,31,32,32,33,33,34,34,35,35,36,36,37,37,38,38,39,39,40,40,41,41,43,43,45,45,46,46,47,47,48,48,49,49,50,50,51,51,52,52,54,54],"right_children":[2,4,6,8,10,12,14,16,18,20,22,24,26,28,-1,30,32,34,36,38,40,42,44,46,48,50,-1,52,54,56,58,60,62,64,66,68,70,72,74,76,78,80,-1,82,-1,84,86,88,90,92,94,96,98,-1,100,-1,-1,-1,-1,-1,-1,-1,-1,-1,-1,-1,-1,-1,-1,-1,-1,-1,-1,-1,-1,-1,-1,-1,-1,-1,-1,-1,-1,-1,-1,-1,-1,-1,-1,-1,-1,-1,-1,-1,-1,-1,-1,-1,-1,-1,-1],"split_conditions":[5.340039E-2,5.0604638E-2,1.0043267E-1,4.9618915E-2,7.939828E-2,1.0030749E-1,1.6674875E-1,4.8459522E-2,7.5696126E-2,8.207409E-2,9.7106524E-2,5.040847E-2,3.1482643E-1,6.780298E-2,5.649032E-1,9.3164004E-2,1.5001535E-1,1.029544E-1,1.2481432E-1,1.239928E-1,1.451133E-1,3.5247426E-2,9.568797E-2,1.1414741E-1,6.4895324E-2,8.4813595E-2,-1.4022826E-1,1.4712201E-1,9.3895555E-2,1.352881E-1,1.6833133E-1,5.909391E-2,1.7841929E-1,5.3283717E-2,1.5842912E-1,1.335772E-1,9.656197E-2,6.579941E-2,1.4241213E-1,8.623665E-2,7.6475434E-2,8.796561E-2,-1.15812995E-1,1.9312048E-1,2.0607977E-1,1.450933E-1,7.7844515E-2,5.1856276E-2,9.500385E-2,1.6440374E-1,5.3928237E-2,3.3152184E-1,8.389299E-2,6.0496825E-1,8.04818E-2,1.1083686E-1,-1.0911582E-1,4.8337266E-1,1.6938685E-1,2.8319067E-1,3.886924E-1,5.112469E-1,-1.01401664E-1,3.3804023E-1,-8.7988205E-2,-8.555802E-2,3.9964563E-1,4.3519068E-1,2.4203712E-2,7.717481E-1,4.194567E-2,4.8220813E-1,